rencontré cet homme	met the man	1.0	1
En tout cas	Anyhow	0.4	2
En tout cas	In any case	0.6	3
Je saigne facilement	I bleed easily	1.0	1
plat principal	main dish	1.0	1
a pu .	could .	1.0	1
« Vous	" You	1.0	1
an , mais	year , but	1.0	1
fête étaient	party were	1.0	1
comprendre du reste	understand	1.0	1
Si le monde	If the world	1.0	1
Nara .	Nara .	1.0	1
larmes en	tears	1.0	1
après souper	after supper	1.0	1
tout est fait	whole is made	1.0	1
boucher de	butcher to	1.0	1
aiderai ta	ll help your	1.0	1
foncer dans le	run into the	1.0	1
fumer pour	smoking for	1.0	4
règles en	rules in	1.0	4
et la dépendance	and dependence	1.0	1
trouvé une tortue	found a turtle	1.0	1
à Microsoft .	Microsoft .	1.0	1
ne savent	do not know	1.0	1
les serpents	like snakes	1.0	2
devenez .	ll get .	1.0	1
Keiko a enfoncé	Keiko buried	1.0	1
début de cette	beginning of this	1.0	1
poètes écrivent	poets write	1.0	1
il , en	he , in	1.0	2
pendant qu' il	while he	1.0	1
langue française	French language	1.0	2
éternellement	forever	1.0	1
a tourné à	turned to	1.0	1
me prenne dans	hold me	1.0	1
vingtième siècle	twentieth century	1.0	1
faire vos	do your	1.0	1
un an	one year old	0.166666666667	1
un an	a year	0.666666666667	4
un an	a year ago	0.166666666667	1
une table	a table	1.0	15
le temps était	the weather was	1.0	2
ne meure	died	1.0	1
garçon nia	boy denied	1.0	1
venu ici auparavant	been here before	1.0	1
les a trouvés	found them	1.0	1
vite que vous	fast as you	1.0	1
suis fier de	am proud to	1.0	1
été accusé d'	was accused of	1.0	1
nourriture est horrible	food is awful	1.0	1
Tom voulait	Tom wanted	1.0	1
point .	done .	0.333333333333	1
point .	point .	0.333333333333	1
point .	extent .	0.333333333333	1
l' acronyme «	the acronym "	1.0	1
le fait qu'	the fact that	1.0	3
pour la fin	by the end	0.4	2
pour la fin	for the end	0.2	1
pour la fin	for last	0.4	2
bon vin .	good wine .	1.0	1
bon vin ,	good wine ,	1.0	1
allâmes au travail	went to work	1.0	1
rue , j'	street , I	1.0	2
écrémés	lattes	1.0	2
temps plein	full time	1.0	1
ouvert .	open .	1.0	2
retentissant après un	belch after a	1.0	1
Jamais ne	Never	1.0	1
mon amie	my friend	1.0	2
plus léger	lighter	1.0	1
il était réalisé	it were fulfilled	1.0	1
l' exercice .	exercise .	1.0	2
êtes trop	re too	1.0	4
Je sens	I smell	1.0	2
utilisez les	use the	1.0	1
plus dangereux	more dangerous	1.0	2
désamorcée quelques	defused just	1.0	1
votre attention	your attention	1.0	1
est plat	is flat	1.0	1
de fumée que	of smoke that	1.0	1
délicieuses .	delicious .	1.0	1
cessa	went out	1.0	3
Avant cela ,	Before that ,	1.0	1
plus bas .	lower cost .	1.0	1
et pourquoi	and why	1.0	1
illégale sur	illegal on	1.0	1
ai joué	spent	0.5	1
ai joué	played	0.5	1
vas te mettre	ll get	1.0	1
utilise pour acheter	use to buy	1.0	1
la campagne	the countryside	0.153846153846	2
la campagne	the country	0.846153846154	11
vais aller	m going	1.0	1
ai acheté quelques	bought a few	1.0	1
bon à la	good in the	1.0	1
Diesel fait	Diesel does	1.0	1
caisse des	box with	1.0	1
en travaillant	while working	1.0	1
tout son argent	all her money	1.0	2
petit nombre d'	sprinkling of	0.5	1
petit nombre d'	small number of	0.5	1
dû saisir la	have taken a	1.0	1
séjournais	was staying	1.0	2
était si	got so	0.0909090909091	1
était si	was so	0.909090909091	10
monte vite	is rising fast	1.0	1
même lorsqu'	even when	1.0	1
vite en colère	gets angry	1.0	1
souffre pour	aches for	1.0	1
était sa	was his	1.0	1
casse-tête de	hassle trying to	1.0	1
une maquette d'	a model	1.0	1
familles	families	1.0	2
compagnie met	company is	1.0	1
le fait que	the fact that	1.0	6
conservé par	preserved by	1.0	1
marins	rescued	1.0	1
est cruel	is cruel	1.0	1
Ayant fait son	Having done his	0.5	1
Ayant fait son	Having done the	0.5	1
, ce soir	, tonight	1.0	1
J' imagine que	I guess	1.0	1
de visualiser quatre	to visualize four	1.0	1
défense de	protection of	1.0	1
Papa prit	Father took his	1.0	1
tenir ta chambre	keep your room	1.0	1
de situer l'	of pinpointing	1.0	1
elle est âgée	she is old	1.0	1
petite amie emprunter	girlfriend borrow	1.0	1
" Quand	" When	1.0	2
allait de soi	matter of course	1.0	1
des images dans	pictures in	1.0	1
Juste après	Just after	1.0	1
gens là où	people where	1.0	1
est probablement assez	s probably pretty	1.0	1
Manger	Eating	0.7	7
Manger	Is eating	0.3	3
Oublie tes chagrins	Forget your sorrows	1.0	1
nombreuses grandes choses	many great things	1.0	1
est très dangereuse	is lethal	1.0	1
par écrit	in writing	1.0	1
un fruit vert	green fruit	1.0	1
Mangez	Eat	1.0	2
six morceaux	six pieces	1.0	1
une grande réussite	achieving great success	1.0	1
vouloir l'	her	1.0	1
nous , mais	us , but	1.0	1
, son plan	, his plan	1.0	1
de la course	in the race	0.666666666667	2
de la course	of the race	0.333333333333	1
contre les	against the	1.0	1
le portique	the gate	1.0	1
pièce ne	room does n	0.5	1
pièce ne	room does	0.5	1
utiliser cet endroit	use this area	1.0	1
autre , Tom	other , Tom	1.0	1
te fera	will do you	0.5	1
te fera	do you	0.5	1
de problème .	of trouble .	1.0	1
présence d' un	presence of a	0.5	1
présence d' un	presence with a	0.5	1
Je suspendis	I hung	1.0	2
et lire	and reading	1.0	1
jeune , mais	young , but	1.0	1
plus belles	most beautiful	1.0	1
un mensonge ,	a lie ,	1.0	1
à une nation	to a nation	1.0	1
robes blanches	white dresses	1.0	1
Ce	It	0.167164179104	56
Ce	This	0.471641791045	158
Ce	These	0.0149253731343	5
Ce	What	0.065671641791	22
Ce	Do	0.00298507462687	1
Ce	How	0.00597014925373	2
Ce	That	0.158208955224	53
Ce	The	0.0567164179104	19
Ce	I	0.0119402985075	4
Ce	You	0.00298507462687	1
Ce	Does	0.00298507462687	1
Ce	Those	0.00298507462687	1
Ce	We	0.0119402985075	4
Ce	Just	0.00597014925373	2
Ce	There	0.00597014925373	2
Ce	They	0.00298507462687	1
Ce	Is	0.00597014925373	2
Ce	He	0.00298507462687	1
présomptueux	presumptuous	1.0	1
quatre années	four years	1.0	1
je passer un	I make a	1.0	1
a gagné	won	1.0	3
bois du	drink	1.0	1
Brossez vos	Brush your	1.0	1
Mourir , ce	Dying	1.0	1
sont mortes à	died for	1.0	1
jouet est fait	toy is made	1.0	1
de pop-corn	popcorn	1.0	1
battu dans	defeated in	1.0	1
avoir prêté	have paid	1.0	1
Combien de	How many	0.9375	15
Combien de	How much	0.0625	1
’ est si	' re so	1.0	1
dîner : j'	dinner : I	1.0	1
les chansons ,	songs ,	1.0	1
gentil par	gentle by	1.0	1
est désormais bien	is now well	1.0	3
très populaire en	very popular in	1.0	1
vérifier	check	1.0	1
Américains , le	Americans , the	1.0	1
met un doux	wears a sweet	1.0	1
meilleure saveur	best flavor	1.0	1
larmes que	tears that	1.0	1
état où il	shape it	1.0	1
j' ai ressenti	I had	1.0	1
du canapé .	the couch .	1.0	1
sa sensibilité intérieure	his inner sensitivity	1.0	1
, seul ,	, alone ,	1.0	1
donné lieu	given rise	1.0	1
votre bien-aimée	your significant other	1.0	2
enterrer la	bury the	1.0	1
répéter le	repeat the	1.0	1
trait sur	line on	1.0	1
des cookies	cookies	1.0	3
puissions y travailler	to work in	1.0	1
" tempura "	" tempura "	1.0	1
commentaire	comment	1.0	2
le radiateur .	the heater .	1.0	1
deviens nerveux	get nervous	1.0	1
l' annonce .	the announcement .	1.0	1
trempé des pieds	wet all	1.0	1
ai dû laisser	may have left	1.0	1
nous partageons comme	we share as	1.0	1
un petit groupe	a small group	1.0	3
pour avoir causé	for causing	1.0	1
d' intérêt	advantage	1.0	1
étais assez	ve been rather	0.8	4
étais assez	was pretty	0.2	1
steak et	steak and	1.0	2
Mais on	but you	0.5	1
Mais on	But one	0.5	1
Le	The	0.909747292419	504
Le	A	0.0108303249097	6
Le	It	0.0252707581227	14
Le	His	0.0072202166065	4
Le	Is	0.00902527075812	5
Le	What	0.00361010830325	2
Le	That	0.0108303249097	6
Le	This	0.00541516245487	3
Le	You	0.00361010830325	2
Le	My	0.00541516245487	3
Le	Time	0.00541516245487	3
Le	Yesterday	0.00180505415162	1
Le	Cold	0.00180505415162	1
une belle lettre	a nice card	1.0	1
je passai	I spent	1.0	1
La	The	0.951406649616	372
La	Air	0.00255754475703	1
La	That	0.00511508951407	2
La	My	0.00255754475703	1
La	A	0.00511508951407	2
La	It	0.00255754475703	1
La	Is	0.00511508951407	2
La	Has	0.00255754475703	1
La	This	0.0102301790281	4
La	Drink	0.00255754475703	1
La	As	0.00511508951407	2
La	All	0.00255754475703	1
La	When	0.00255754475703	1
bouger ses	moving its	1.0	1
ton gâteau	your cake	1.0	2
retirer un peu	withdraw some	1.0	1
rythme	rate	0.5	1
rythme	pace	0.5	1
vie et	life and	0.75	3
vie et	lives and	0.25	1
mal quand je	whenever I	1.0	1
autre pièce .	next room .	1.0	1
est un espion	is a spy	1.0	1
eu un	happened an	0.166666666667	1
eu un	was an	0.166666666667	1
eu un	had a	0.166666666667	1
eu un	met with a	0.333333333333	2
eu un	with a	0.166666666667	1
guitare .	guitar .	1.0	3
noté que	noted that	1.0	1
guitare ,	guitar and	1.0	1
genou	knee	1.0	1
quatre semaines	four weeks	1.0	2
je fais ,	I do ,	1.0	1
moulin .	argument .	1.0	1
langue de	language to	1.0	1
accepter le pot-de-vin	accept the bribe	1.0	3
mon patron	my boss	1.0	2
c' est faux	it is wrong	1.0	1
il advienne	no matter	1.0	1
bouteille , c'	bottle , it	1.0	1
série de prédictions	number of predictions	1.0	1
continues à boire	go on drinking	1.0	1
qu' ils peuvent	that they can	1.0	1
tisser	spinning	1.0	2
marchandises au Japon	goods in Japan	1.0	1
la première section	the first section	1.0	1
ai oublié ma	left my	0.5	1
ai oublié ma	forgot my	0.5	1
l' oiseau !	the bird !	1.0	2
pas avoir à	't have to	1.0	10
restaurant japonais	Japanese restaurant	1.0	1
L'	The	0.910526315789	173
L'	Water	0.0157894736842	3
L'	A	0.0105263157895	2
L'	Both	0.0105263157895	2
L'	Last	0.0105263157895	2
L'	You	0.00526315789474	1
L'	Is	0.00526315789474	1
L'	This	0.0210526315789	4
L'	No	0.00526315789474	1
L'	Union	0.00526315789474	1
est dégueulasse	is nasty	1.0	1
Il apprend	He studies	0.333333333333	1
Il apprend	He learned	0.333333333333	1
Il apprend	He learns	0.333333333333	1
Tatoeba :	Tatoeba :	1.0	7
tu déchiré le	you tear the	1.0	1
poisson et	fish and	1.0	3
un train .	a train .	1.0	2
Je suis trop	I am too	1.0	1
balade	walk	1.0	1
faisant éclater un	by popping a	1.0	1
poisson en	fish in	1.0	2
Tatoeba ,	Tatoeba ,	1.0	2
donnez -	give	0.4	2
donnez -	do	0.6	3
le feu est	the signal is	0.333333333333	1
le feu est	the lights are	0.333333333333	1
le feu est	the light is	0.333333333333	1
bouillait à	boiled at	1.0	1
tous les jours	every day	1.0	15
plus trois	plus three	1.0	2
l' ennemi	the enemy	0.8	4
l' ennemi	enemy	0.2	1
ai marché toute	have walked all	1.0	1
des hommes	men	0.5	3
des hommes	people	0.5	3
annonça	announced	1.0	2
pas rencontré Mary	't met Mary	1.0	1
portion de	the flower from	1.0	1
de glace et	of ice and	1.0	1
un saute-mot	a leapword play	1.0	1
gardon	daisy	1.0	1
à Kate ?	to Kate ?	1.0	1
homme s' approcher	man approaching	1.0	1
de celles	of things	1.0	2
un œuf .	an egg .	1.0	4
mien .	mine .	1.0	5
en énergie .	into power .	1.0	1
trempé	wet through	1.0	2
qu' il est	that he is	0.285714285714	2
qu' il est	think he is	0.142857142857	1
qu' il est	he is	0.142857142857	1
qu' il est	that it is	0.428571428571	3
avec une grosse	with a large	1.0	1
au service de	the service of	1.0	1
peux	can	0.85401459854	117
peux	't	0.00729927007299	1
peux	could	0.00729927007299	1
peux	may	0.0875912408759	12
peux	you can	0.00729927007299	1
peux	May	0.014598540146	2
peux	have	0.00729927007299	1
peux	Can	0.00729927007299	1
peux	able	0.00729927007299	1
a tenté	tried	0.5	1
a tenté	attempted	0.5	1
était une couleur	was a colour	1.0	1
Il fait	It is	0.539473684211	41
Il fait	It ' s	0.105263157895	8
Il fait	He is	0.210526315789	16
Il fait	It gets	0.0263157894737	2
Il fait	He does	0.0263157894737	2
Il fait	He looks	0.0131578947368	1
Il fait	He has	0.0263157894737	2
Il fait	He makes	0.0394736842105	3
Il fait	The weather is	0.0131578947368	1
face à	face to	0.5	1
face à	beside	0.5	1
peur	fear	0.285714285714	10
peur	afraid	0.571428571429	20
peur	scared	0.0285714285714	1
peur	afraid of	0.0285714285714	1
peur	my fears	0.0285714285714	1
peur	lest	0.0285714285714	1
peur	scared of	0.0285714285714	1
J' ai beaucoup	I have lots	1.0	2
qu' un peu	think a little	1.0	1
sous leur	under the	1.0	1
tenait à une	sat at one	1.0	1
dragons ,	dragons ,	1.0	1
peut	ca	0.0105263157895	2
peut	can	0.784210526316	149
peut	may	0.147368421053	28
peut	little	0.00526315789474	1
peut	is	0.0210526315789	4
peut	s	0.0105263157895	2
peut	will	0.0105263157895	2
peut	might	0.00526315789474	1
peut	be	0.00526315789474	1
sont élevés pour	are bred for	1.0	1
plus dur .	harder .	1.0	3
lieu inoubliable	unforgettable place	1.0	1
Oublie ça .	Forget it .	1.0	1
l' habitude de	used to	0.375	6
l' habitude de	accustomed to	0.125	2
l' habitude de	the habit of	0.5	8
Fumer a	Smoking has	1.0	2
à toute son	on all his	1.0	1
destin ultime	ultimate fate	1.0	1
clarifié dans	made clear in	1.0	1
sauf les oignons	but onions	1.0	1
donne - moi	give me	1.0	2
tête sur	head on	0.666666666667	2
tête sur	head down on	0.333333333333	1
fit	made	0.294117647059	5
fit	had	0.294117647059	5
fit	was	0.0588235294118	1
fit	did	0.176470588235	3
fit	took	0.0588235294118	1
fit	baked	0.0588235294118	1
fit	hit	0.0588235294118	1
Carol a	Carol has	1.0	1
à l' intérieur	inside	0.8	4
à l' intérieur	time inside	0.2	1
chante sur	is singing in	1.0	1
La dame habillée	The lady dressed	1.0	1
moins on	less you	0.5	1
moins on	less one	0.5	1
laisser Mary	let Mary	1.0	1
chiffonna	crushed	1.0	1
comment ça	how it	1.0	2
, ni maître	, no crown	0.5	1
, ni maître	nor Master	0.5	1
vie ?	living ?	1.0	2
connaître son nom	know his name	1.0	1
fin	end	0.960317460317	121
fin	last	0.00793650793651	1
fin	bottom	0.00793650793651	1
fin	ending	0.015873015873	2
fin	over	0.00793650793651	1
la vaisselle	the dishes	0.692307692308	9
la vaisselle	dishes	0.153846153846	2
la vaisselle	the washing up	0.153846153846	2
fil	string with	0.333333333333	1
fil	thread	0.333333333333	1
fil	wire	0.333333333333	1
fume juste pour	smoke just to	1.0	1
« C'	" that	1.0	1
dans sa trentaine	in her thirties	1.0	1
sont à l'	are to the	1.0	2
fait si	has been so	0.2	1
fait si	s this	0.2	1
fait si	looks so	0.2	1
fait si	s so	0.4	2
un T-shirt ?	a T-shirt ?	1.0	1
l' herbe dans	the grass in	1.0	1
visage avec	face with	1.0	1
sa queue .	its tail .	1.0	1
poupée .	doll .	1.0	1
la tente ,	the tent	1.0	1
étudiants semblent	students seem	1.0	1
l' habitude d'	the habit of	1.0	1
Que ça ira	Will it go	1.0	1
garçons sont	boys	1.0	1
un T-shirt .	a T-shirt .	1.0	2
Tony Evans	Tony Evans	1.0	1
absorbé par	absorbed in	1.0	2
demain matin .	tomorrow morning .	1.0	1
êtes un très	are a really	1.0	1
thé ou	tea or	0.857142857143	6
thé ou	or tea	0.142857142857	1
et lutter	and fight	1.0	1
est sûr	is sure	1.0	1
en Europe ,	in Europe ,	1.0	1
examen , qu'	exam , what	1.0	1
saucière .	saucer .	1.0	2
vouloir	want	0.875	7
vouloir	want money	0.125	1
demain matin ?	tomorrow morning ?	1.0	1
guitare , elle	guitar and she	1.0	1
naissance de	birth of	1.0	2
mangent pas	't eat	1.0	5
averse	shower	1.0	1
fasse ,	do ,	0.2	1
fasse ,	does ,	0.8	4
Ken maintenant	Ken doing now	1.0	1
maison , ou	house , or	1.0	1
était vraiment	was truly	0.166666666667	1
était vraiment	really hit	0.166666666667	1
était vraiment	was really	0.666666666667	4
manières : oralement	ways , orally	1.0	1
dans le bain	into the bath	1.0	1
mon opinion ,	my opinion ,	1.0	1
elle avait	she felt	0.111111111111	1
elle avait	she was	0.444444444444	4
elle avait	she had	0.444444444444	4
aussi vite que	as fast as	1.0	31
des pages	pageboys	1.0	1
allai	went	0.8	4
allai	I went	0.2	1
froid juste	cold from just	1.0	1
de conscience	of awareness	1.0	1
tu étais	you were	1.0	3
devrez	ll have	0.5	1
devrez	will need	0.5	1
la pièce était	the room was	0.666666666667	2
la pièce était	the play was	0.333333333333	1
circulation .	traffic signal .	1.0	1
cravate se marie	tie blends	1.0	1
espace d' un	course of a	1.0	1
au Kirghizistan est	in Kyrgyzstan is	1.0	1
Lorsque tu	When you	1.0	1
travail qu' il	work that he	1.0	2
hautbois	oboe repaired	1.0	1
de pétrole .	of oil .	1.0	1
négatifs est positif	numbers is positive	1.0	1
Susie	Susie	1.0	1
se lavait dans	washed in	1.0	1
française .	French .	1.0	1
aimerais pouvoir	wish I could	1.0	1
faisceau	beam	1.0	1
leurs devoirs	their homework	1.0	2
avec sa copine	with his girlfriend	1.0	1
toute	whole	0.1875	12
toute	all	0.640625	41
toute	very	0.09375	6
toute	full	0.015625	1
toute	short	0.015625	1
toute	up	0.015625	1
toute	throughout	0.015625	1
toute	entire	0.015625	1
expérience	experience	1.0	6
leur pour	them for	1.0	1
éternellement .	forever .	1.0	1
néfaste pour son	harmful to his	1.0	1
est faux .	is wrong .	1.0	1
bouchée .	obstructed .	1.0	1
Mayuko entra dans	Mayuko entered	1.0	1
fait remise	right again	1.0	2
l' examiner	look	1.0	1
John a rencontré	John met	1.0	1
moisissure	mold	1.0	1
de thé glacé	of iced-tea	1.0	1
bien fait	well done	0.5	1
bien fait	done well	0.5	1
un nouveau essaya	a noob tried	1.0	1
Après le repas	After the meal	1.0	1
vous mangiez	you eating	1.0	1
aussi vite qu'	as fast as	1.0	10
moitié	half	0.909090909091	10
moitié	halves	0.0909090909091	1
est notre question	is our question	1.0	1
l' a vu	saw him	1.0	1
eus pas	't have	1.0	1
européenne ou	European or	1.0	1
Ne marchez	Do n	1.0	1
ses devoirs .	his homework .	0.6	3
ses devoirs .	his work .	0.2	1
ses devoirs .	homework .	0.2	1
Paul	Paul	1.0	2
força son	forced his	1.0	1
étais habitué à	was used to	0.333333333333	1
étais habitué à	used to	0.333333333333	1
étais habitué à	was accustomed to	0.333333333333	1
regrettait d'	repented	0.5	1
regrettait d'	regretted	0.5	1
fourchettes ,	forks ,	1.0	1
prendrais bien	d like	1.0	2
mois , pendant	months , during	1.0	1
carottes	cheese	1.0	1
apprend ses leçons	studies his lessons	1.0	1
grossier , mais	rough , but	1.0	1
Certains étudiants semblent	Some students seem	1.0	1
pièce où	room where	1.0	1
à chercher	looking for	0.5	1
à chercher	to look for	0.5	1
café sent bon	coffee smells good	1.0	1
sont faits pour	are intended to	1.0	1
entreprise va bientôt	company will soon	1.0	1
Tous les	All the	0.6	3
Tous les	Every	0.4	2
rentrerai	get	1.0	1
d' Inde .	from India .	1.0	1
mâcher des	chewing	1.0	1
Il avait promis	He promised	1.0	1
, le gouvernement	if the government	1.0	1
obtenir des traductions	get translations	1.0	2
Faites un	Make a	1.0	1
petit étang dans	small pond in	1.0	2
tête se télescopent	head collide	1.0	1
vraiment tout en	really everything in	1.0	1
me manquent	miss them	1.0	1
à l'	at the	0.406779661017	24
à l'	in the	0.169491525424	10
à l'	to the	0.35593220339	21
à l'	into the	0.0169491525424	1
à l'	toast the	0.0169491525424	1
à l'	to each	0.0169491525424	1
à l'	on the	0.0169491525424	1
son cerveau	his mind	1.0	1
Une période	A spell	0.5	1
Une période	A dry	0.5	1
devrais passer plus	should spend more	1.0	3
est née dans	was born in	1.0	1
Apple met	Apple is	1.0	1
la merci de	the mercy of	1.0	1
service	service	0.75	6
service	set	0.25	2
moitié fait .	half done .	1.0	2
se plaignit à	complained to	1.0	2
cambriolage	robbery	1.0	1
à fumer	to smoke	1.0	1
idées nouvelles	new ideas	1.0	1
le patio ?	the patio ?	1.0	3
mot dès	line as soon	1.0	1
sur cette	on this	0.6	3
sur cette	on that	0.4	2
le vent ,	the wind ,	1.0	1
laisser l' eau	left the water	1.0	1
plus en	warmer	0.5	1
plus en	getting	0.5	1
livre est petit	book is small	1.0	3
ma secrétaire	my secretary	1.0	2
sushis dans	sushi at	1.0	1
fort , que	badly , that	1.0	1
Peut-être mon	Maybe my	1.0	2
fait l' acquisition	buy it	1.0	4
, tous	, all	0.666666666667	2
, tous	, everybody	0.333333333333	1
Marche le	Walk	1.0	1
tout mon	all my	0.666666666667	2
tout mon	all I	0.333333333333	1
froid qu' il	cold that he	1.0	1
pour vivre ,	to be ,	0.2	1
pour vivre ,	to live ,	0.6	3
pour vivre ,	to live .	0.2	1
trop sombre	too dark	1.0	6
es toujours	re	1.0	2
tout le monde	everybody	0.5	7
tout le monde	everyone	0.5	7
Marie danse	Mary can dance	1.0	1
automne , l	fall , and	1.0	1
les transmets	ll give them	1.0	1
à la	at the	0.295	59
à la	to the	0.39	78
à la	on a	0.005	1
à la	in the	0.185	37
à la	toward the	0.005	1
à la	from the	0.01	2
à la	in her	0.01	2
à la	on the	0.04	8
à la	by the	0.02	4
à la	in a	0.005	1
à la	with the	0.01	2
à la	into the	0.005	1
à la	with your	0.005	1
à la	on state	0.005	1
à la	for the	0.005	1
à la	to a	0.005	1
faire du feu	making fire	1.0	1
appelé Tony	called Tony	1.0	1
Barman , je	Bartender , I	1.0	1
prochaine .	after next !	1.0	1
Shounan .	Shounan .	1.0	2
temps pour	time to	0.227272727273	5
temps pour	time in	0.0454545454545	1
temps pour	time for	0.681818181818	15
temps pour	while to	0.0454545454545	1
La Physique est	Physics is	1.0	1
. À propos	. About	1.0	1
joue un	plays an	1.0	1
notamment parce que	particularly because	1.0	1
le film .	the movie .	1.0	1
est populaire parmi	is popular with	1.0	1
en mai	in May	1.0	1
à fond	thoroughly	0.5	2
à fond	on	0.25	1
à fond	fully	0.25	1
développé un ingénieux	evolved an ingenious	1.0	1
encouragea ses hommes	inspired his men	1.0	1
vivre de son	live on his	1.0	2
en brodant .	while embroidering .	1.0	1
il prêt	ready	1.0	1
juste sa nature	just his nature	1.0	1
bouger la grosse	move the big	1.0	1
feriez	had	0.428571428571	6
feriez	d	0.428571428571	6
feriez	would make	0.0714285714286	1
feriez	may	0.0714285714286	1
fait attention	is being careful	1.0	1
le café fort	coffee strong	1.0	2
voyez un homme	see a man	1.0	1
ai une	have an	0.0769230769231	2
ai une	have a	0.846153846154	22
ai une	ve got a	0.0769230769231	2
Chicago	Chicago	1.0	1
longs	long	1.0	1
" Aimes -	" Do	1.0	1
l' importance	the importance	1.0	3
l' entrée pour	the entrance to	1.0	1
produits chimiques	chemicals	0.5	1
produits chimiques	agricultural chemicals	0.5	1
tu coures	you run	1.0	1
M. Jones	Mr Jones	1.0	1
partagèrent une pizza	shared a pizza	1.0	1
lit et réparé	bed and repaired	1.0	1
responsabilité difficile	difficult responsibility	1.0	1
qui ont rendu	which have made	1.0	1
ses modes ,	its fashions ,	1.0	1
vint coller son	came sticking her	1.0	1
comprend une	includes a	1.0	1
m' avoir invité	for having me	1.0	1
Ceci est chaud	This is hot	1.0	1
distingués par	bound in	1.0	1
un récit de	a record of	1.0	1
m' a promis	promised me	1.0	2
Être dans une	Being in a	1.0	1
remplacer la	replace the	1.0	2
La rougeole	Measles	1.0	1
pour qu'	so that	1.0	1
il est	it is	0.3125	10
il est	he is	0.6875	22
affaire	matter	0.307692307692	4
affaire	own business	0.0769230769231	1
affaire	bargain	0.0769230769231	1
affaire	affair	0.230769230769	3
affaire	business	0.153846153846	2
affaire	deal	0.153846153846	2
à la fête	to the party	0.695652173913	16
à la fête	at the party	0.304347826087	7
Tout se déroule	Everything is going	1.0	1
terminé le travail	finished the work	1.0	1
voir si vous	see if you	1.0	1
pas manger davantage	't eat more	1.0	1
de cette phrase	of this sentence	0.8	4
de cette phrase	in this sentence	0.2	1
de ses bras	of her arms	0.5	1
de ses bras	of his arms	0.5	1
une peau	a hide	1.0	1
pas dire courir	not mean running	1.0	1
il dit .	he says .	1.0	1
Aïe ! Aïe	Oww ! Oww	1.0	2
Anglais .	English .	1.0	1
aide d' une	with a	1.0	2
du bricolage	some tinkering	1.0	1
principal était d'	concern was to	1.0	1
mon portable	my cell phone	0.5	1
mon portable	my laptop	0.5	1
un de ses	one of his	1.0	1
comment un	how a	1.0	2
sûr que c'	sure that it	0.5	1
sûr que c'	sure that this	0.5	1
mini-jupe	mini	1.0	1
mes parents	my parents	1.0	11
Encore	We	0.25	1
Encore	Just	0.25	1
Encore	More	0.25	1
Encore	Yet	0.25	1
leur bonheur .	their happiness .	1.0	1
d' accident	of an accident	1.0	1
singes	teach	1.0	1
dans lesquelles	in which	1.0	1
cette dernière bouteille	that last bottle	1.0	1
la caisse des	the box with	1.0	1
un livre est	a book is	1.0	1
rivière coule trop	river flows too	1.0	1
nuit passionnée	passionate night	1.0	1
officielles	,	1.0	1
fait une promenade	takes a walk	1.0	1
maison compte sept	house has seven	1.0	1
vous envie	you feel like	1.0	1
a rien d'	is anything but	1.0	1
déploie ses ailes	spread its wings	1.0	1
des images	pictures	1.0	1
lorsque tout va	when everything is	1.0	1
se masturber	masturbate	1.0	1
monde est	are	0.25	1
monde est	world is	0.75	3
un cours en	a course in	1.0	1
Ils doivent	They must	0.333333333333	1
Ils doivent	They have	0.333333333333	1
Ils doivent	they must	0.333333333333	1
plus vite	more quickly	0.333333333333	2
plus vite	as fast	0.666666666667	4
faire tout ton	do all you	1.0	1
des équipements .	sales .	1.0	1
après avoir regardé	after I watch	1.0	1
mon machin dans	my doohickey into	1.0	1
les couleurs claires	light colors	1.0	1
lui va bien	suits her	1.0	1
se fait toujours	is always	1.0	1
impliqué dans	involved in	1.0	1
Mon rêve	My dream	1.0	2
épuisée	exhausted	0.5	1
épuisée	worn out	0.5	1
aller chercher	go buy	1.0	1
Ne pas	Do n 't	0.333333333333	1
Ne pas	Not	0.666666666667	2
à Tatoeba	to Tatoeba	1.0	1
Cet appareil photo	This camera	1.0	3
gros pour courir	fat to run	1.0	1
ont chanté .	sang .	1.0	1
trop de sel	too much salt	1.0	5
un hamburger	a hamburger	1.0	3
vous aimez	you like	0.5	1
vous aimez	you love	0.5	1
prix de 5	price of 5	1.0	1
l' article	the item	1.0	1
souillée .	away .	1.0	1
honteusement	in shame	1.0	1
mon frigo	my refrigerator	1.0	1
jours rallongent	days grew longer	1.0	1
Ce lait	This milk	1.0	5
que confirmé l'	than justified the	1.0	1
dans les derniers	in the last	1.0	1
et son plaisir	and pleasure	1.0	1
que le dollar	that the dollar	1.0	1
que cela puisse	as it may	1.0	1
chauve-souris chasse	bat hunts food	1.0	1
choisit son	chooses its	0.5	1
choisit son	chooses his	0.5	1
était vraiment au	was truly at	1.0	1
réchaud , sinon	burner , otherwise	1.0	1
Vous pouvez télécharger	You can download	1.0	1
cheveu dans	hair in	1.0	1
toutes ses	all her	0.5	1
toutes ses	all his	0.5	1
incroyable	amazing	1.0	1
pompée	pumped	1.0	1
" viens	" come	1.0	1
et tu	and you	1.0	4
sur la poitrine	on my chest	1.0	1
Maki sont sœurs	Maki are sisters	1.0	1
, le lait	, the milk	1.0	1
Une éponge absorbe	A sponge absorbs	1.0	1
Sa chanson est	Her song is	1.0	1
sagement et d'	wisely and to	1.0	1
plats	out	0.125	1
plats	meals	0.125	1
plats	dishes	0.625	5
plats	flat	0.125	1
de nombreux	many	1.0	2
trop rapidement	too fast	1.0	1
en étroite coopération	in close cooperation	1.0	1
dégueulasse .	nasty .	1.0	1
Anglais va	English will	1.0	1
humain .	human race .	1.0	1
d' allemand	German	1.0	1
un regard démoralisé	downcast eyes	1.0	1
demanda Tom	asked Tom	1.0	1
ici dans cette	here on this	1.0	1
« Surtout	" Especially	1.0	1
les vacances	the holidays	0.5	2
les vacances	the vacation	0.25	1
les vacances	holidays	0.25	1
beaucoup marché .	long walk .	1.0	1
appeler la	call the	1.0	1
il y aurait	there should be	1.0	1
données citées dans	data cited in	1.0	1
de ton propre	of your own	1.0	1
année	year	0.885714285714	31
année	year round	0.0571428571429	2
année	this year	0.0571428571429	2
attrapé	a	0.166666666667	1
attrapé	catching a	0.166666666667	1
attrapé	caught a	0.5	3
attrapé	caught	0.166666666667	1
Elle courut	She ran	1.0	3
avoir mon	have my	1.0	1
après la bagarre	after the fight	1.0	1
voleur ou	thief or	1.0	1
Puisque tu fais	Since you do	1.0	1
me cuisit	made me	0.5	1
me cuisit	baked me	0.5	1
. Commence	. So	1.0	1
un monde	a world	1.0	3
quarante	forty	1.0	1
l' endroit .	the place .	1.0	1
tu jamais	you ever	1.0	3
rester ici	stay here	1.0	2
Il remonta une	He landed a	1.0	1
tu faire s'	you do if	1.0	1
transcender notre	transcend our	1.0	1
Pour survivre en	To survive in	1.0	1
préservation de	preservation of	1.0	1
fonctionne pas	't flush	0.25	1
fonctionne pas	not work	0.25	1
fonctionne pas	't work	0.25	1
fonctionne pas	't working	0.25	1
d' alcool .	alcohol .	1.0	6
gardé la meilleure	saved the best	1.0	1
Oh , non	Oh , no	1.0	1
ce type	this sort	0.5	1
ce type	this kind	0.5	1
cerveau exploserait	brain would explode	1.0	1
table est verte	table is green	1.0	1
» , murmura	" , murmured	1.0	1
votre chef .	your leader .	1.0	1
saches parler cette	can speak this	1.0	1
voile qui	multitude	1.0	1
secrétaire .	secretary .	1.0	4
été relativement	been fairly	1.0	1
ira	will	0.0769230769231	1
ira	will go	0.153846153846	2
ira	will get	0.153846153846	2
ira	will turn out	0.0769230769231	1
ira	will be	0.307692307692	4
ira	goes	0.0769230769231	1
ira	be OK	0.0769230769231	1
ira	go	0.0769230769231	1
notre plan	our plan	1.0	3
Al-Azhar -	University –	1.0	1
Grand-père a	Grandfather has	1.0	2
un bon restaurant	a good restaurant	0.75	3
un bon restaurant	any good restaurant	0.25	1
juillet .	of July .	1.0	1
très éducative	very educating	1.0	1
est si honnête	is so honest	1.0	1
nature	nature	0.857142857143	24
nature	wilderness	0.0357142857143	1
nature	really	0.0357142857143	1
nature	self	0.0357142857143	1
nature	wild	0.0357142857143	1
pointer	address	0.5	1
pointer	point	0.5	1
transcendant	transcendental	1.0	1
difficile d' avoir	difficult to have	0.666666666667	2
difficile d' avoir	difficult to remove	0.333333333333	1
on mange le	one eats	1.0	1
par jour et	a day keeps	1.0	1
fait remise dans	right again in	1.0	2
devient rouge	turns red	1.0	1
carrière	career	0.75	3
carrière	actor	0.25	1
vois une fleur	see a flower	1.0	1
: une bonne	: a good	1.0	1
congelé .	frozen .	1.0	1
plus incroyable que	most incredible	1.0	1
fleur est une	flower is a	1.0	1
l' hôtel	the hotel	1.0	3
retournée à	returned to	1.0	1
" Pierre	" A	1.0	2
des actions	stock	1.0	1
Ils finirent	They finished	1.0	1
touffe	tuft	1.0	1
niveau ou	level or	1.0	1
Laura	Laura	1.0	1
qu' ainsi	That so	1.0	1
quatre dollars	four dollars	1.0	1
hasard à Tokyo	chance in Kyoto	1.0	1
règne	rules	1.0	1
Lassée	Tired	1.0	1
les derniers six	the last six	1.0	1
adorais lire quand	loved reading when	1.0	1
au niveau	in my	1.0	1
l' avion	the plane	1.0	3
te souvenir où	remember where	1.0	4
mon bureau .	my office .	1.0	1
l' avenue	the avenue	1.0	1
vingt-quatre	twenty four	1.0	2
qu' il joue	that he play	1.0	1
lait peut	milk will	1.0	1
téléphone sonna .	telephone rang .	1.0	1
je suis resté	I stayed	1.0	2
voyagé	traveled	1.0	1
ignorent	ignorant of	1.0	1
débris de	pieces of	1.0	1
était là	was there	0.333333333333	1
était là	were here	0.666666666667	2
démarrer	start	0.666666666667	2
démarrer	start up	0.333333333333	1
atome	atom	1.0	3
Il a jeté	He cast	1.0	1
quittâmes	quit	1.0	1
solaire	solar	0.5	1
solaire	,	0.5	1
est habituée	is used	1.0	1
étudiée à la	considered at the	1.0	1
bambou est	bamboo is	1.0	1
pour Jill .	for Jill .	1.0	1
nièces	nieces	1.0	1
steak .	steak .	1.0	1
union	union	1.0	4
la petite fille	the granddaughter	1.0	1
dois apprendre	should learn	1.0	1
campagne politique	political campaign	1.0	1
volumineux de	with	1.0	1
.	.	0.996877236354	15323
.	!	0.00136620909505	21
.	?	0.000780690911457	12
.	,	0.000585518183592	9
.	order	6.50575759547e-05	1
.	;	0.000130115151909	2
.	change	6.50575759547e-05	1
.	I.	6.50575759547e-05	1
.	…	6.50575759547e-05	1
rameur	rower	1.0	1
farceur ne devrait	practical joker should	1.0	1
faire ton devoir	do your duty	1.0	1
il annonça que	he announced that	1.0	1
besoins primaires de	basic needs of	1.0	1
, mais ce	, but you	0.25	1
, mais ce	, but it	0.25	1
, mais ce	, but I	0.5	2
suivre son avis	follow his advice	1.0	1
au sujet du	about the	1.0	1
La civilisation	Civilization	1.0	1
vont bientôt arriver	going to arrive	1.0	1
Tu as bon	You have good	1.0	1
nature ennemies .	nature enemies .	1.0	1
erreur .	mistake .	0.857142857143	12
erreur .	error .	0.0714285714286	1
erreur .	wrong .	0.0714285714286	1
le steak et	the steak and	1.0	1
un soupir de	a sigh of	1.0	1
Kaori Yoshikawa	Kaori Yoshikawa	1.0	1
Oublie les	Forget the	1.0	1
J' ai dévoué	I devoted	1.0	1
Tom demanda à	Tom asked	1.0	2
ici et là	here and there	1.0	1
besoin d	need to	0.333333333333	1
besoin d	want of	0.666666666667	2
dernier train	last train	1.0	4
faire bouillir	boil	1.0	1
avoir plusieurs significations	have multiple meanings	1.0	1
sait comment	knows how	1.0	5
rendre ces	rendering these	1.0	1
Le cerf	The deer	1.0	1
confiance	trust	0.5	3
confiance	on	0.166666666667	1
confiance	trusted	0.333333333333	2
mouton , maintenant	sheep , now	1.0	1
Ils étaient assis	They sat	1.0	1
préférerais avoir	would rather have	1.0	1
Une tasse de	A cup of	1.0	3
avec ce magasin	with this store	1.0	1
: « Une	, " A	1.0	1
trouva une vieille	found an old	1.0	1
elle est une	it is an	1.0	1
tendis	handed	1.0	2
ayant aucune idée	Having no idea	1.0	1
verger	fruit garden	1.0	2
, Ayako .	, Ayako .	1.0	1
boisson sont	beverage are	1.0	1
revue le livre	through the book	1.0	1
parle cette langue	speaks that language	1.0	1
muet comme	silent like	1.0	1
Soixante	Sixty	1.0	1
est peut-être	is perhaps	1.0	1
alimentation	food	0.333333333333	1
alimentation	s nutrition	0.333333333333	1
alimentation	nutrition	0.333333333333	1
il est essentiel	it is essential	1.0	1
les moutons :	the sheep :	1.0	1
mentionna	mentioned	1.0	1
principale	main	0.666666666667	2
principale	principal	0.333333333333	1
trois cents millions	three hundred million	1.0	1
Il fait un	It is a	0.5	1
Il fait un	He does an	0.5	1
blanche comme	white as	1.0	1
peindre	paint	0.777777777778	7
peindre	painted	0.111111111111	1
peindre	start by	0.111111111111	1
cour a décidé	court decided	1.0	1
avons terminé le	ve finished the	1.0	1
faire des promenades	taking walks	1.0	2
est positif .	is positive .	1.0	1
de manger toute	to eat up	1.0	1
, papier	, paper	1.0	1
est bonne	is good	0.714285714286	5
est bonne	tastes good	0.142857142857	1
est bonne	s good	0.142857142857	1
Un chasseur	A hunter	1.0	1
était réalisé ,	were fulfilled ,	1.0	1
un lieu de	a house of	1.0	2
traductions si vous	translations if you	1.0	1
pourrais passer pour	could pass for	1.0	1
marches	walk	1.0	3
marcher	walk	0.866666666667	13
marcher	walking	0.0666666666667	1
marcher	walk on	0.0666666666667	1
ses inconvénients	disadvantages	1.0	1
Tom prend	Tom takes	1.0	1
marchez	n	0.333333333333	1
marchez	walk	0.666666666667	2
ou trois	or three	1.0	2
par 4,5 kilos	by ten pounds	1.0	1
toujours pas	still no	1.0	1
ans maintenant .	years now .	1.0	1
ton sang-froid	your temper	1.0	1
L' orchestre	The orchestra	1.0	1
avec leurs enfants	with their children	1.0	2
familles .	families .	1.0	1
familles ,	families ,	1.0	1
bon timbre .	good tone .	1.0	1
animal gris	animal was	1.0	1
ai un chat	have a cat	1.0	1
bonne cette	good this	1.0	1
Le berger compte	The shepherd counts	1.0	1
surprise de voir	surprise to see	1.0	1
nerveuse . Elle	nervous . It	1.0	1
parle chinois .	speaks Chinese .	1.0	1
aimerai	' d like	1.0	2
Elle habite avec	She lives with	1.0	1
sommes -	Have	1.0	2
pourriez faire dix	could look ten	1.0	1
de ton Anglais	of your English	1.0	1
plaque	out	0.333333333333	1
plaque	baking	0.333333333333	1
plaque	plaque	0.333333333333	1
trop grande !	too big !	1.0	1
fourchette	fork	1.0	4
Elle a amélioré	She has improved	1.0	1
a encouragé	inspired	0.333333333333	1
a encouragé	encouraged	0.666666666667	2
vous concernant	you about	1.0	1
une tasse de	a cup of	1.0	62
" tu	" you	1.0	1
créer une	create a	1.0	1
océan .	ocean .	1.0	2
promets	promise	1.0	2
sonna la	rang the	1.0	1
Taklamakan , un	Taklamakan , an	1.0	1
a brûlé par	was burned	1.0	1
chien court	dog runs	1.0	2
trois .	three .	1.0	4
trois ,	three ,	1.0	2
frissonnait .	was shivering .	1.0	1
Et il	And there	1.0	1
chaude et	hot and	1.0	1
nourriture ?	food ?	1.0	3
nos parents	our parents	1.0	1
heures au	hours in the	1.0	1
il avait chaud	he felt hot	1.0	1
et allemand à	and German to	1.0	1
à apprendre ,	to learn ,	1.0	1
de problème	of trouble	1.0	1
ta bouche	your mouth	1.0	1
Jim a glissé	Jim slipped	1.0	1
nourriture ,	food ,	1.0	3
nourriture .	food .	0.931034482759	27
nourriture .	foods .	0.0344827586207	1
nourriture .	nourishment .	0.0344827586207	1
bannière sur	banner on	1.0	1
qu' il savait	that he could	1.0	1
à sa	to his	0.538461538462	7
à sa	at his	0.230769230769	3
à sa	on his	0.153846153846	2
à sa	to her	0.0769230769231	1
Le piano a	The piano has	1.0	1
médicaux et	medical and	1.0	1
disons	say	1.0	1
long bec	long beak	1.0	1
confection	make	1.0	1
L' explication	The explanation	1.0	1
décidai de	decided to	1.0	1
parfois ça tombe	they sometimes fall	1.0	1
deux tasses	two cups	1.0	2
proposa à Mary	challenged Mary	1.0	1
très bonne impression	very good impression	1.0	1
nager , vous	swim , you	1.0	1
exactement	ago	0.142857142857	1
exactement	quite	0.142857142857	1
exactement	exactly	0.714285714286	5
peinte en blanc	painted white	1.0	1
On utilise	They usually use	1.0	1
heures chaque	o 'clock every	1.0	1
dire ce qui	saying what	1.0	2
de petite	of small	1.0	1
différence entre	difference between	1.0	9
extrêmement ennuyeux .	extremely boring .	1.0	1
siège .	seat .	1.0	1
bateau était bloqué	ship was locked	1.0	1
De plus	is more	0.5	1
De plus	Moreover	0.5	1
faisais pas	't use	1.0	2
a essuyé la	wiped a	1.0	1
fournit	supplies	1.0	2
Après six	After six	1.0	1
très bonne santé	very healthy	1.0	1
plan aisément	plan smoothly	1.0	1
Mary pourquoi elle	Mary why she	1.0	2
de qualité	of quality	1.0	2
vraiment tout	really snow	0.5	1
vraiment tout	really everything	0.5	1
un célèbre chanteur	a famous singer	1.0	1
La Banque de	The Bank of	1.0	1
froide	cold	0.857142857143	12
froide	shy	0.0714285714286	1
froide	as cold	0.0714285714286	1
Chacun sait	Everyone knows	1.0	1
une carte sur	a map on	1.0	1
ou tu peux	or you may	1.0	1
plan pour	plans for	1.0	1
cela dans	that in	1.0	1
trois minutes .	three minutes .	1.0	1
pouvons presque	can almost	1.0	1
leur tragédie .	their tragedy .	1.0	1
phrase , dans	sentence , in	1.0	1
à la hâte	in a rush	1.0	1
Il ébrécha le	He chipped the	1.0	1
dans ma manche	up my sleeve	1.0	1
le blanc de	the white of	1.0	1
la cafetière .	the pot .	1.0	2
serait perdue	would be lost	1.0	1
quand ma voiture	when my car	1.0	1
un fantôme .	a ghost .	1.0	1
cette carte postale	this postcard	1.0	2
déjà mangé mon	already had my	1.0	1
Je dois	I have	0.641509433962	34
Je dois	I gotta try	0.0188679245283	1
Je dois	I must	0.245283018868	13
Je dois	I owe	0.0188679245283	1
Je dois	I need	0.0754716981132	4
mais qui	but who	1.0	1
que le	that the	0.666666666667	20
que le	than the	0.266666666667	8
que le	as the	0.0333333333333	1
que le	like the	0.0333333333333	1
de dessous	from beneath	1.0	1
que la	that the	0.555555555556	10
que la	than the	0.333333333333	6
que la	as the	0.111111111111	2
vivre longtemps	live long	0.833333333333	5
vivre longtemps	live a long	0.166666666667	1
peu près le	about the	1.0	1
appelle la police	call the police	1.0	1
antécédents dit que	background says that	1.0	1
votre participation .	your business .	1.0	1
à dire .	to say .	1.0	3
thé est si	tea is so	1.0	1
chemin de	way to	0.5	1
chemin de	path of	0.5	1
le bâton	the stick	1.0	1
l' Amérique puisse	America can	1.0	1
dû pénétrer dans	must have entered	1.0	1
en six	into six	0.5	1
en six	into six pieces	0.5	1
retourna la table	turned the table	1.0	1
en cas	in case	0.636363636364	7
en cas	lest	0.0909090909091	1
en cas	unless	0.0909090909091	1
en cas	in time	0.0909090909091	1
en cas	in times	0.0909090909091	1
reflètent	a mirror	1.0	1
dernièrement que les	recently that the	1.0	1
Il échoua à	He failed	1.0	1
les pattes commencent	legs begin	1.0	1
cravate car	tie because	1.0	2
d' étrange	strange	1.0	2
Je considère	I regard	1.0	1
Ce dispositif peut	This device may	1.0	1
Deux thés et	Two teas and	1.0	1
hommes de	men from	1.0	2
est propre .	is clean .	1.0	1
était vraiment beau	was really beautiful	1.0	2
aiguisait	was sharpening	1.0	1
les bêtes	animals	1.0	1
sucre caraméliser .	sugar caramelise .	1.0	1
avec du saké	with sake	1.0	1
faire parce que	do this because	1.0	2
que l'	that the	0.714285714286	10
que l'	as the	0.142857142857	2
que l'	sure the	0.0714285714286	1
que l'	though the	0.0714285714286	1
chaleur qui peut	heat that can	1.0	1
tirer avantage	taking advantage	1.0	1
continuèrent de	continued to	1.0	1
était d'	was to	0.5	1
était d'	was of	0.5	1
vont .	go .	1.0	1
avez à	have to	1.0	8
Je possède	I own	1.0	1
un fils	a son	1.0	1
chaque matin	every morning	1.0	12
j' ai eu	I found	1.0	1
Barack Hussein	Barack Hussein	1.0	1
amour au	love to	1.0	1
mon panier	my basket	1.0	1
la bouilloire ,	the pot ,	1.0	1
économiser	save	1.0	3
la bouilloire .	the kettle .	1.0	1
insoluble dans	insoluble in	1.0	1
trois études de	three simulated	1.0	2
parlait	spoke	1.0	2
Plie	Fold	1.0	1
notre maison .	our house .	1.0	1
de Jésus sont	of Jesus are	1.0	1
ingénieux	ingenious	1.0	1
un film	the movie	1.0	1
sur la qualité	about the quality	1.0	1
un mouton	a sheep	1.0	1
du poivre	pepper	0.5	1
du poivre	pepper on it	0.5	1
verre contient de	glass contains	1.0	1
Je songeais que	I thought	1.0	1
envoie un	sends a	1.0	1
un piédestal	a pedestal	1.0	1
voisine c' est	neighbour is	1.0	1
étudiants sont la	students are the	1.0	1
ont jamais	have never	1.0	1
Lorsque votre estomac	When your stomach	1.0	1
intéressé .	interested .	1.0	1
se faire	make herself	1.0	1
dont les talents	whose skills with	1.0	1
Le prix	The price	0.857142857143	6
Le prix	The cost	0.142857142857	1
tous mourir	all starve	1.0	1
contusions	over	1.0	1
personnes apprécient est	people enjoy is	1.0	1
votre famille	your family	1.0	2
est ma cousine	is my cousin	1.0	1
travail à faire	work to do	0.9	9
travail à faire	work to get	0.1	1
seuls pouvez	alone can	1.0	1
tu désolée pour	you sorry for	1.0	1
Elle travaille dans	She works in	1.0	1
J' allai faire	I went for	1.0	1
plan des lignes	route map	1.0	1
mon séjour	my stay	1.0	1
Si tu retires	If you take	1.0	1
l' ensemble de	the whole of	1.0	1
parfum .	perfume .	1.0	1
sache ,	know ,	1.0	2
pensais que vous	thought you	1.0	1
intérieur	inside	1.0	1
recette .	recipe .	1.0	1
très populaire	very popular	1.0	1
dans une	in an	0.0508474576271	3
dans une	in a	0.762711864407	45
dans une	to a	0.0338983050847	2
dans une	to an	0.0169491525424	1
dans une	at a	0.0508474576271	3
dans une	into a	0.0169491525424	1
dans une	inside an	0.0169491525424	1
dans une	on a	0.0169491525424	1
dans une	in one	0.0169491525424	1
dans une	from a	0.0169491525424	1
vous enverrai	ll send you	1.0	1
nouveau restaurant	new restaurant	1.0	2
à l' acronyme	to the acronym	1.0	1
piano comme	piano as	1.0	1
petit moment .	little while .	1.0	5
duel après	duel after	1.0	1
une collection	a collection	1.0	4
ancien modèle	old model	1.0	1
pâte à	air to	1.0	1
J' allai	I went	1.0	3
une carte de	a map of	1.0	2
et son cheval	and his horse	1.0	1
où je	where I	0.818181818182	9
où je	when I	0.181818181818	2
payer le coût	pay the costs	1.0	1
appartement bruyant	noisy apartment ,	1.0	1
degrés celsius .	degrees centigrade .	1.0	1
surs que je	sour that I	1.0	1
les gens émigrent	people emigrate	1.0	1
Tu peux prendre	You may take	1.0	1
de ton père	with your father	1.0	2
chaises en dehors	chairs out	1.0	1
denrée	commodity	1.0	2
tout seul dans	alone in	1.0	1
un jeu auquel	a game	1.0	1
falafel	falafel	1.0	1
coup violent	heavy blow	1.0	1
vendredi .	Friday .	1.0	2
cette lampe	this lamp	1.0	1
signification	means	1.0	1
Elle suggéra	She suggested	1.0	1
Cet appareil produit	This device produces	1.0	1
est extrêmement ennuyeux	is extremely boring	1.0	1
« Si c'	" If it	1.0	1
dans le seau	into the bucket	0.25	1
dans le seau	in the bucket	0.75	3
garder les choses	keep things	1.0	1
avais très faim	felt very hungry	0.666666666667	2
avais très faim	was very hungry	0.333333333333	1
Une personne	One person	0.5	1
Une personne	One	0.5	1
Le Canada a	Canada has	1.0	1
Comme cela est	As is	1.0	1
Aha ,	Aha ,	1.0	1
alors qu'	although	0.25	1
alors qu'	even though	0.5	2
alors qu'	while	0.25	1
Mayuko était seul	Mayuko was alone	1.0	1
un cauchemar .	a nightmare .	1.0	1
père va bientôt	father will soon	1.0	1
Après tout	After all	1.0	3
se rendre	surrender	0.666666666667	2
se rendre	go	0.333333333333	1
donc votre	thus your	1.0	1
différentes causes	various causes	1.0	1
boucher dépeça	butcher cut up	1.0	1
patates	potatoes	1.0	1
Un piano	A piano	1.0	5
Remettez	Clear off	1.0	1
aller faire un	going for a	1.0	1
bœuf au	gig at the	1.0	1
il se passe	happens	1.0	2
restaurant est le	restaurant is the	1.0	1
piqûre	the bite	1.0	1
longueur	long	1.0	2
du vieux	the old	1.0	1
avoir beaucoup	having plenty	0.2	1
avoir beaucoup	have a lot	0.6	3
avoir beaucoup	got a lot	0.2	1
temps vas	times are	1.0	1
vos parents .	your parents .	1.0	1
tourna au coin	turned the corner	1.0	1
le pouvoir	the power	1.0	1
courbaturé	stiff	1.0	1
alors que	whereas	0.2	1
alors que	while	0.2	1
alors que	even though	0.2	1
alors que	but	0.2	1
alors que	although	0.2	1
Le Canada ,	Canada ,	1.0	1
il partit	he went	1.0	1
bébé semblait dormir	baby seemed	1.0	1
un adolescent	a teenager	1.0	1
toujours simple de	always easy to	1.0	1
Veuillez remplacer la	Please replace the	1.0	2
rumeur était	rumor had	1.0	1
haggis sauvage ?	wild haggis ?	1.0	1
faisait	was	0.885245901639	54
faisait	had	0.0327868852459	2
faisait	did	0.0491803278689	3
faisait	being	0.016393442623	1
faisait	makes	0.016393442623	1
Un dauphin	A dolphin	1.0	3
juste pour donner	just to give	1.0	1
deux chats	two cats	1.0	4
le brouillard	the fog	1.0	1
faisais	was making	0.166666666667	1
faisais	was	0.166666666667	1
faisais	did	0.333333333333	2
faisais	use	0.333333333333	2
Le patient ne	The patient	1.0	1
plans .	plans .	1.0	3
Bien ,	Fine ,	0.142857142857	1
Bien ,	Well ,	0.857142857143	6
Bien .	Fine .	0.333333333333	1
Bien .	Okay .	0.333333333333	1
Bien .	Good .	0.333333333333	1
ai repéré la	located the	1.0	1
avec nous	with us	1.0	3
osa	dare	1.0	1
chair	my flesh	1.0	1
mot de	word of	0.5	1
mot de	word in	0.5	1
sortis	go outside	0.25	1
sortis	went out	0.25	1
sortis	out	0.25	1
sortis	came	0.25	1
la montagne est	the mountain is	1.0	1
extérieur de cette	outside of this	1.0	1
ce merveilleux repas	the wonderful meal	1.0	1
et John	and John	1.0	1
Il est sorti	He went out	0.75	3
Il est sorti	He left	0.25	1
donc ça	so it	1.0	1
bain , avec	bath , with	1.0	1
« un	" a	1.0	1
glace craqua sous	ice cracked under	1.0	1
marché du travail	job market	1.0	1
est une	s a	0.0588235294118	5
est une	is an	0.129411764706	11
est une	is a	0.729411764706	62
est une	s one	0.0117647058824	1
est une	is one	0.0470588235294	4
est une	was a	0.0235294117647	2
de déplacer le	to move the	1.0	1
de dignité	of dignity	1.0	1
était blanche	was white	1.0	1
quitté l'	left the	1.0	1
service dans ce	service in this	1.0	1
les hôpitaux	hospitals	1.0	1
La photo	The picture	1.0	1
siècle a	century has	1.0	1
acheta une	bought a	1.0	1
des fluides	fluids	1.0	1
chaussures sont si	shoes are so	1.0	1
marché pour ces	market for these	1.0	1
queue disparaît	tail disappears	1.0	1
pattes .	legs .	0.666666666667	2
pattes .	way .	0.333333333333	1
exact	right	1.0	1
minute	minute	1.0	2
un signe .	a sign .	1.0	1
fait " miaou	goes " meow	1.0	1
de la liberté	of liberty	1.0	1
signal	signal	1.0	1
des météores destinés	meteors destined	1.0	1
tombée sur toi	ran into you	1.0	1
si je suis	if I am	1.0	2
implants	breast	1.0	1
bonne mémoire	good memory	1.0	1
sociable , mais	social , but	1.0	1
bouillonnait d'	was bursting with	1.0	1
voulu que	meant for	1.0	1
stage dans une	internship at a	1.0	1
mieux faire	done better	0.5	1
mieux faire	better to act	0.5	1
quitté la	left the	1.0	1
atmosphère	atmosphere	1.0	1
est comme cela	s how	0.5	1
est comme cela	is how	0.5	1
quitté le	left the	1.0	2
fut embauché	was hired	1.0	1
fournit le monde	supplies the world	1.0	1
lente mais	slow but	1.0	1
la secoua	shook	1.0	1
un niveau ou	one level or	1.0	1
, que vais	, what am	1.0	1
M.	Mr	0.842105263158	16
M.	Mr.	0.157894736842	3
chapeau sied votre	hat matches your	1.0	1
et mon art	and my art	1.0	1
ceci est	this is	1.0	2
ai mes	have my	1.0	1
les mains	your hands	0.333333333333	3
les mains	hands	0.555555555556	5
les mains	hands up	0.111111111111	1
pourquoi Tatoeba est	why Tatoeba is	1.0	1
Elle a une	She has a	1.0	4
était courtisée	was courted	1.0	1
Liu Manqiang ,	Liu Manqiang ,	1.0	1
cause d'	because of	0.5	1
cause d'	account of	0.5	1
La nourriture et	As food and	1.0	1
pouvait faire	could do	1.0	1
cette merde	this mess	1.0	1
avait peur de	was afraid to	1.0	3
problème est réglé	problem is fixed	1.0	1
idée d'	idea of	1.0	1
est mauvais	is bad	0.777777777778	14
est mauvais	is harmful	0.0555555555556	1
est mauvais	s wrong	0.0555555555556	1
est mauvais	wrong	0.0555555555556	1
est mauvais	is nasty	0.0555555555556	1
difficile de	hard to	0.411764705882	7
difficile de	difficult to	0.588235294118	10
un bateau	a ship	1.0	1
Keeton	Keeton	1.0	2
du boulanger que	the baker that	1.0	1
cassa	broke	1.0	2
père hier .	father yesterday .	1.0	1
les magasins .	shop .	1.0	1
casse	breaks	0.75	3
casse	broken	0.25	1
était prêt	was ready	1.0	2
fier de faire	proud to be	1.0	1
le plus chaud	hottest	1.0	3
- il	he have	0.333333333333	1
- il	he doing	0.333333333333	1
- il	it make	0.333333333333	1
. Merci	. Thank you	1.0	1
après moi et	as me and	1.0	1
À la cuisine	In the kitchen	1.0	1
Me	Do	0.333333333333	1
Me	Getting	0.666666666667	2
est l' union	is the union	1.0	1
Ma	My	0.984496124031	127
Ma	I	0.015503875969	2
employée perdit son	clerk lost his	1.0	1
Son élection est	Her election is	1.0	1
est Noël	s Christmas	1.0	1
est un toit	is a roof	1.0	1
familles , nos	families , our	1.0	1
Pierre Dubois .	Pierre Dubois .	1.0	1
préférerais être	d rather be	1.0	1
annonce de la	news of the	1.0	1
Allons ,	Come on ,	1.0	1
plût ,	was raining ,	1.0	1
mange .	eats .	1.0	1
Mr	Mr	0.666666666667	2
Mr	Mr.	0.333333333333	1
révéler	cat	1.0	1
le poisson et	the fish and	1.0	1
, sur	, on	1.0	1
conversation est	conversation is	1.0	1
vous trois .	you three .	1.0	2
un avertissement que	a warning that	1.0	1
livres !	books .	1.0	2
prisme décompose la	prism decomposes	1.0	1
cause de	because of	0.777777777778	7
cause de	cause of	0.222222222222	2
bonne épouse	good wife	1.0	1
la bouteille	the bottle	1.0	13
idée de	idea to	0.6	3
idée de	idea of	0.4	2
travail " ,	job ,	1.0	1
élevé sept	brought up seven	1.0	1
vos idées	your ideas	1.0	1
était cassée	was broken	1.0	1
cette	this	0.785714285714	264
cette	that	0.151785714286	51
cette	the	0.0535714285714	18
cette	last	0.00892857142857	3
Faites -	Let	1.0	2
difficile d'	difficult to	1.0	4
livres .	books .	0.75	3
livres .	pounds .	0.25	1
queue	tail	0.5	11
queue	line	0.272727272727	6
queue	angels	0.0454545454545	1
queue	appear	0.0454545454545	1
queue	bottom	0.0454545454545	1
queue	dick	0.0454545454545	1
queue	cock	0.0454545454545	1
cause du	account of the	1.0	1
colonne	column	1.0	1
important lorsqu'	important in	1.0	1
tuer dans	killed in	1.0	1
ta femme .	your wife .	1.0	1
seulement un an	only a year	1.0	1
livres ?	books ?	1.0	2
gratuitement .	for nothing .	1.0	1
meilleur moyen pour	best way to	1.0	1
son petit revenu	his small income	1.0	1
laisser ta	let your	1.0	1
rapide et efficace	fast and effective	1.0	1
tabac mais	tobacco but	1.0	1
a touché ses	has affected his	1.0	1
faire trois copies	make three copies	1.0	1
peuple constata	people found	1.0	1
chaussée	road	1.0	1
la nouvelle génération	the next generation	1.0	1
tout seul	alone	0.333333333333	3
tout seul	all alone	0.111111111111	1
tout seul	all by yourself	0.111111111111	1
tout seul	by	0.111111111111	1
tout seul	by yourself	0.333333333333	3
à quatre dimensions	in four dimensions	1.0	1
noté	noted	1.0	1
dans la plaie	in the wound	1.0	2
de demander	to ask	1.0	1
matin comme	morning as	1.0	1
pense que celui	think this	1.0	1
léger	slight	0.4375	7
léger	light	0.5	8
léger	thin	0.0625	1
impolie envers	rude to	1.0	1
projet à	project to	1.0	1
dans la chambre	in the room	1.0	3
désir	desire	0.666666666667	2
désir	desire for	0.333333333333	1
ses études	his studies	1.0	1
pourquoi ne pas	why not	1.0	2
Un cheval court	Horses run	1.0	1
« Je	" I	1.0	8
prends du	eat any	1.0	1
, mais tu	, but you	1.0	11
l' examen .	the exam .	0.3	3
l' examen .	the test .	0.2	2
l' examen .	the examination .	0.5	5
l' examen ,	the exam ,	1.0	1
faire les	do the	0.5	2
faire les	doing the	0.5	2
bleus .	bruises .	1.0	1
meilleure option	best bet	1.0	2
quelqu'un qui	someone	0.333333333333	1
quelqu'un qui	someone who	0.666666666667	2
nouveau produit .	new product .	1.0	2
Cette liqueur	This liquor	1.0	1
sa ceinture	his seat belt	1.0	4
Il a frappé	He knocked	1.0	2
les veines	the veins	1.0	1
salaire	salary	0.571428571429	4
salaire	and	0.142857142857	1
salaire	pay	0.142857142857	1
salaire	income	0.142857142857	1
sert deux mille	prepares two thousand	1.0	1
traça un cercle	drew a circle	1.0	1
chaleur de l'	heat of the	1.0	1
la Chine	ancient China	0.5	1
la Chine	China	0.5	1
si jeune	so young	1.0	1
Un litre de	A liter of	1.0	1
conférence	lecture	0.333333333333	1
conférence	press conference	0.333333333333	1
conférence	conference	0.333333333333	1
mur de son	wall of his	1.0	1
bourg . C'	town . It	1.0	1
cette table avec	this table with	1.0	1
pinte	pint	1.0	1
de devoirs	of homework	1.0	2
chien poursuivait	dog pursued	1.0	1
une sale	a bad	1.0	1
Quelle couleur est	Which color	1.0	1
de cette rivière	in this river	1.0	1
il rencontré sa	he met his	1.0	1
capacités	ability	1.0	2
sauterelles "	locusts "	1.0	1
exister sans eau	exist without water	1.0	2
que rien	anything	1.0	1
temps dehors et	time outside and	1.0	1
en état	as it is	1.0	1
Grâce à lui	Thanks to him	1.0	1
attacher leurs ceintures	fasten their seat	1.0	1
Tom va	Tom is going	1.0	1
nettoyer	clean	0.75	30
nettoyer	cleaned	0.05	2
nettoyer	cleaning	0.1	4
nettoyer	clean up	0.05	2
nettoyer	cleaning up	0.025	1
nettoyer	wash	0.025	1
. Voudrais -	. Would	1.0	1
gâteau .	cake .	1.0	59
cette fleur ?	this flower ?	1.0	4
gâteau ,	cake ,	1.0	4
quelques courses	some shopping	1.0	2
nia avoir	denied having	1.0	5
avait réellement	was truly	1.0	1
tellement ivre	so drunk	1.0	1
gâteau !	cake .	0.8	4
gâteau !	cake !	0.2	1
pense que cette	think that this	0.333333333333	1
pense que cette	think this	0.666666666667	2
gâteau ;	cake ;	1.0	1
Où que	Wherever	1.0	1
la saveur	the flavor	1.0	2
gâteau ?	cake ?	0.8	16
gâteau ?	pie ?	0.2	4
week-end	weekend	1.0	3
et met l'	and put the	1.0	1
genoux et	your knees and	1.0	1
La soupe goûte	The soup tastes	1.0	1
l' a assuré	assured him	1.0	1
litre	liter	1.0	1
Que ce	Let it	1.0	1
Yuma en Arizona	Yuma	1.0	1
tout ça dans	that much in	1.0	1
tout ça	that much	0.5	1
tout ça	it all	0.5	1
dans votre voiture	in your car	1.0	1
crocodile noir	black crocodile	1.0	1
Certaines	Some	1.0	3
es trop occupé	re too busy	1.0	1
Grands Lacs fournissent	Great Lakes supply	1.0	1
dussions	have	1.0	1
me rendre à	go to	1.0	2
suis Chinois .	am Chinese .	1.0	1
propre intérêt .	own interest .	1.0	1
Ce moteur	This engine	1.0	1
vous après	you after	1.0	1
est au-dessous	is below	1.0	2
gâteau a	cake was	1.0	1
pour distinguer le	to distinguish	1.0	1
jeu .	stake .	0.5	2
jeu .	risk .	0.25	1
jeu .	game .	0.25	1
collègue , qui	colleague who	1.0	2
suis nerveux	m nervous	1.0	1
verre est	drink is	0.2	1
verre est	glass is	0.8	4
très chargée	very busy	1.0	1
sainement	healthfully	1.0	1
va fondre	will melt	1.0	1
pouvais perdre l'	could break the	1.0	1
Tu sais	You know	1.0	4
pas se battre	't fight	1.0	1
d' avoir gagné	of having won	1.0	2
vie secrète	secret life	1.0	1
ignorer les	ignoring the	1.0	1
quel point	how small	1.0	1
sur l' herbe	on the grass	0.916666666667	11
sur l' herbe	on grass	0.0833333333333	1
il a dit	he said	1.0	5
La crèvecœur	The Crèvecœur	1.0	1
, maman ,	, Mother ,	0.5	1
, maman ,	, Mom ,	0.5	1
au travail et	at work and	1.0	1
avait été créé	had been created	1.0	1
vous laisse	will leave	1.0	1
Qui n'	Who does	1.0	1
. Pas	. No	1.0	2
mange	eating	0.0666666666667	3
mange	eat	0.488888888889	22
mange	eats	0.266666666667	12
mange	am eating	0.0222222222222	1
mange	consumes	0.0222222222222	1
mange	eats any	0.0222222222222	1
mange	have	0.0666666666667	3
mange	s eating	0.0222222222222	1
mange	served	0.0222222222222	1
Il a dédié	He has dedicated	1.0	1
alimentation qui	food that	1.0	1
de neiges et	with snows and	1.0	1
la géométrie	geometry	1.0	1
nouveau le	again the	1.0	1
Si Dieu	If God	1.0	1
rouge tous	red all	1.0	1
machine est	machine is	1.0	1
est généralement très	is generally very	1.0	1
mal le	it badly	1.0	1
jetée à	thrown into	1.0	2
terminé	done	0.1	1
terminé	finished	0.7	7
terminé	through with	0.2	2
pieds	well	0.2	1
pieds	tread	0.2	1
pieds	feet	0.4	2
pieds	all over	0.2	1
train ce	train this	1.0	1
garantissant	still guaranteeing	1.0	1
chameau de passer	camel to pass	1.0	1
tâche maintenant	task now	1.0	1
raison et	reason and	1.0	1
pièce un	room one	1.0	1
une bague .	a ring .	1.0	1
, puis	, and then	0.5	2
, puis	and	0.25	1
, puis	, then	0.25	1
pour cuire	to boil	1.0	1
vient après le	comes after the	1.0	1
Vous devriez aller	You should go	1.0	1
sérieuse .	offer .	1.0	1
vécut	lived for	1.0	1
Ils ont marché	They walked	1.0	1
Le temps	Time	0.25	1
Le temps	The weather	0.5	2
Le temps	The time	0.25	1
niveau intermédiaire .	s intermediate .	1.0	1
Assise	Sitting	1.0	1
était pris	was bound	1.0	1
faire plus qu'	do more than	1.0	1
je ferai	I make	1.0	1
un dinosaure à	a dinosaur to	1.0	2
la drogue	lord	1.0	1
Jessie fait bouillir	Jessie is boiling	1.0	1
soupe .	soup .	1.0	6
sortez	get out	1.0	1
, personne	, man	1.0	1
est mal géré	is badly managed	1.0	1
soupe !	soup .	1.0	2
sortes	kinds	0.875	7
sortes	types	0.125	1
de pommes	of apples	1.0	5
Elle peut nager	She can swim	1.0	1
soupe ?	soup ?	1.0	1
allumée sur	lit	1.0	1
Mon appareil photo	My camera	1.0	5
sur la surface	on the surface	1.0	1
la feuille	the paper	0.666666666667	2
la feuille	the sheet	0.333333333333	1
Un angström est	An ångström is	1.0	1
est sortie pour	went outside to	1.0	1
Regarde cet	Look at that	1.0	1
reste six .	have six .	1.0	1
votre sœur à	your sister at	1.0	1
passais des heures	would spend hours	1.0	1
que bien dit	than well said	1.0	1
utilisation de	use of	1.0	1
dessert était composé	dessert was made	1.0	1
votre fille .	your daughter .	1.0	1
défonce - toi	get really stoned	1.0	1
bonne à boire	good to drink	1.0	1
arriver .	do it .	1.0	1
une taupinière	a mole hill	1.0	1
semble effrayant	looks scary	1.0	1
un dîner qui	a dinner that	1.0	1
foireux	half-baked	1.0	1
allai dans	went into	1.0	1
néfaste pour	harmful to	1.0	1
a versé le	poured the	1.0	1
Un homme	A man	1.0	7
, lorsqu'	, when	1.0	1
devait être	should be	1.0	1
J' ai récemment	I have recently	1.0	1
Père ne	Father does n	1.0	1
prisme	prism	1.0	2
un tas	a piece	0.5	1
un tas	a whole lot	0.5	1
personnes perdirent la	people lost their	1.0	1
salade	salad	1.0	9
gagné le prix	won the prize	1.0	1
doigts sur	fingers on	1.0	1
Tatoeba ?	Tatoeba ?	1.0	1
Notre voiture	Our car	1.0	1
improbable que	unlikely that	1.0	4
même erreur .	same mistake .	1.0	3
étudions le chinois	study Chinese	1.0	1
méthode	teaching	0.0909090909091	1
méthode	way	0.181818181818	2
méthode	method	0.363636363636	4
méthode	proposed	0.363636363636	4
rétablirez	get well	1.0	1
de la nature	of nature	0.941176470588	16
de la nature	from nature	0.0588235294118	1
un loup	a wolf	1.0	1
feriez tout aussi	might as	1.0	2
fané .	it .	1.0	1
du piano comme	the piano as	1.0	1
dans les montagnes	in the mountains	1.0	1
Les avocats débattirent	The lawyers argued	1.0	1
très malicieux	very naughty	1.0	1
est ta	s your	1.0	4
avoir raison de	be right in	1.0	1
une nouvelle robe	a new dress	1.0	2
sont différentes	are different	1.0	1
revendications salariales .	wage demands .	1.0	1
restaurant familial	family restaurant	1.0	1
comme cela	how	0.666666666667	2
comme cela	so	0.333333333333	1
pour se préparer	getting ready	0.5	1
pour se préparer	to get ready	0.5	1
résolu	determined	0.5	1
résolu	bent	0.5	1
bien avant	long before	1.0	1
les élèves	the students	0.333333333333	1
les élèves	the student	0.333333333333	1
les élèves	students	0.333333333333	1
ont récemment	have recently	1.0	1
depuis de nombreux	for many	1.0	1
, lorsque	like when	0.5	1
, lorsque	, when	0.5	1
as fait pendant	did on	1.0	1
amusé pendant	time during	1.0	1
le chemin depuis	the way from	1.0	1
du génie .	of genius .	1.0	1
double fond .	false bottom .	1.0	1
une fine couche	a thin sheet	1.0	1
Récemment , j'	Recently I	1.0	1
. À qui	. Whose	1.0	1
du café sur	coffee on	1.0	1
ampoule électrique	light bulb	1.0	1
dis au patron	tell the boss	1.0	1
« Fichier	" File	1.0	1
, peut-être	, perhaps	0.5	1
, peut-être	, maybe	0.5	1
s' est rafraîchi	refreshed himself	1.0	1
lait sont	milk are	1.0	1
protagoniste deviennent clairs	protagonist become clear	1.0	1
la cheville .	my ankle .	1.0	1
: à la	: in the	1.0	1
une terrible erreur	an awful mistake	1.0	1
fruit acide	sour fruit	1.0	1
menaçaient de faire	threatened to go	1.0	1
son lait dans	milk from	1.0	1
la plaie	the wound	1.0	2
est similaire à	is similar to	1.0	1
orchestre .	orchestra .	1.0	1
en harmonie avec	in harmony with	1.0	1
lourds en	heavy in	1.0	1
appartient à mon	belongs to my	1.0	1
Tatoeba .	Tatoeba .	1.0	2
les moyens de	the means of	1.0	1
Les feuilles ont	The leaves	1.0	1
à Tokyo avant	in Tokyo before	1.0	1
autorisés à	entitled to	1.0	1
avec ses amis	with his friends	0.333333333333	1
avec ses amis	with her friends	0.666666666667	2
Avez -	Do	0.268292682927	11
Avez -	Have	0.365853658537	15
Avez -	Did	0.292682926829	12
Avez -	Are	0.0487804878049	2
Avez -	Does	0.0243902439024	1
tombée malade	fallen ill	1.0	2
un nouveau jour	a new light	1.0	1
dans le monde	in the world	0.857142857143	6
dans le monde	around the world	0.142857142857	1
promenade qu'	walk than	1.0	1
suis mouillé .	get wet .	1.0	1
tous les mois	every month	1.0	4
un examen en	a test in	0.5	1
un examen en	an exam in	0.5	1
faire cela	do that	0.625	15
faire cela	doing that	0.0833333333333	2
faire cela	do this	0.25	6
faire cela	doing this	0.0416666666667	1
exemple ,	example ,	1.0	1
est pleine	is full	1.0	1
quatre ans avec	four years with	1.0	1
dans cette ville	in this city	1.0	3
poète devint fou	poet went mad	1.0	1
plait le	like	1.0	1
l' ancien modèle	the old model	1.0	1
zéro depuis plusieurs	freezing for several	1.0	1
dans sa	in his	0.652173913043	15
dans sa	in her	0.217391304348	5
dans sa	in its	0.0434782608696	1
dans sa	into her	0.0869565217391	2
cela serait	this would be	1.0	1
profonde	deep	1.0	1
connaissance du chinois	knowledge of Chinese	1.0	1
ont	have	0.875	42
ont	legitimate	0.0208333333333	1
ont	are	0.0416666666667	2
ont	beginning	0.0208333333333	1
ont	were	0.0208333333333	1
ont	have variously	0.0208333333333	1
aille chercher	fetch	1.0	1
perdu son temps	wasted his time	1.0	1
moins chère	cheaper	1.0	1
avoir posté	posting	0.666666666667	2
avoir posté	mailing	0.333333333333	1
chemin . À	way . To	1.0	1
La femme	The woman	1.0	5
village sur	village in	1.0	1
La signification	The means	1.0	1
la fenêtre alors	the window when	1.0	1
par le médecin	by the doctor	1.0	1
M. Nagashima	Mr Nagashima	1.0	1
sans alcool ?	non-alcoholic ?	1.0	1
que certains autres	that certain other	1.0	1
un jour	a day	0.538461538462	7
un jour	the day	0.0769230769231	1
un jour	one day	0.384615384615	5
ont quatre cours	have four classes	1.0	1
froid ici qu'	cold here as	1.0	1
autre chose .	another thing .	0.5	1
autre chose .	something .	0.5	1
choisit son arbre	chooses its tree	1.0	1
gros vous	fatter you	1.0	1
demanda comment	asked how	1.0	1
De la même	In the same	1.0	1
arbre fruitier	fruit-tree come	1.0	1
a eu du	had a	1.0	1
faire demain !	do tomorrow .	1.0	1
, est sortie	, went out	1.0	1
partir du moment	from the time	1.0	2
" un amas	" a deafening	1.0	1
doit être terriblement	must be terribly	1.0	1
mais vous devriez	but you should	1.0	1
absorbe	absorbs	1.0	4
reprises .	times .	1.0	1
ici même en	here even in	1.0	1
si tu marches	if you walk	1.0	1
les marins	sailors	1.0	1
; et ils	; and they	1.0	1
nombreuses années .	many years .	1.0	1
plats délicieux	delicious dishes	1.0	1
voie terrestre	them overland	1.0	1
toujours voulu	always wanted	1.0	3
chinois quand j'	Chinese while I	1.0	1
ne pas laisser	not leave	1.0	1
Un pub est	A pub is	1.0	1
métier doit toujours	should always	1.0	1
trouve que	find that	0.666666666667	2
trouve que	thinks	0.333333333333	1
moitié fini .	half done .	1.0	1
Je crois que	I believe	0.5	1
Je crois que	I think	0.5	1
nous a fait	made us	1.0	5
grossière	s	1.0	1
et chaleur .	and heat .	1.0	2
sein du	within the	1.0	1
Vous serez	You will be	1.0	3
Quatre ou	Four or	1.0	1
réponse à ma	response to my	1.0	2
aucune différence	any difference	0.5	1
aucune différence	matter	0.5	1
tu trouveras	you will find	1.0	1
échoué plusieurs	failed several	1.0	1
De façon générale	Generally speaking	1.0	1
vélo est	bike is	0.5	1
vélo est	bike	0.5	1
cravate va bien	tie goes well	0.333333333333	1
cravate va bien	tie goes	0.666666666667	2
veux lui faire	want her to	1.0	1
rondelles vertes	in green spots	1.0	1
leur dispute .	their quarrel .	1.0	1
de la lecture	for reading	1.0	1
Newton pensait que	Newton thought	1.0	1
dans la montagne	on the mountain	1.0	1
est nettement mieux	is much better	1.0	1
être claire ,	be clear ,	1.0	1
versais dans	poured into	1.0	2
un autre nom	another name	1.0	1
mon petit cadeau	my little present	1.0	1
coupe de	glass of	0.5	1
coupe de	glass with	0.5	1
ulcère va	ulcer	1.0	1
Combien de minutes	How many minutes	1.0	1
m' a tapé	hit me	1.0	1
célèbre chanteur .	famous singer .	1.0	1
rumeur .	rumor .	1.0	2
parfait idiot	perfect idiot	1.0	1
près	near	0.6	12
près	by	0.1	2
près	nearly frozen	0.05	1
près	about	0.15	3
près	nearly	0.05	1
près	close	0.05	1
Une bouteille d'	A bottle of	1.0	1
nerveux quand l'	nervous when the	1.0	1
taille .	size .	0.5	1
taille .	height .	0.5	1
as raison	are right	1.0	1
rapide coup	quick	1.0	1
faire avec	do with	1.0	19
zoo	zoo	1.0	1
et pénètre	and enters	1.0	1
perdre	lose	0.916666666667	11
perdre	break	0.0833333333333	1
Barman	Bartender	1.0	1
de l' exercice	some exercise	1.0	2
dans une année	in a year	1.0	1
Le sel était	Salt was	1.0	1
un ours avec	a bear with	1.0	1
me met	put me	0.333333333333	1
me met	puts me	0.666666666667	2
a descendu	went down	1.0	1
il fasse ,	he does ,	1.0	3
obstacle inattendu	unexpected obstacle	1.0	1
Traverse le	Go through the	1.0	1
trop d' électricité	too much electricity	1.0	1
Le Japon fait	Japan does	0.5	1
Le Japon fait	Japan has	0.5	1
à 32 degrés	at 32 degrees	1.0	1
l' inverse est	the opposite is	1.0	1
un terme	an end	1.0	1
une chaussette	a sock	1.0	2
était verrouillée	was locked ,	0.5	1
était verrouillée	was locked	0.5	1
audibles bien	audible long	1.0	1
Combien d'	How many	1.0	3
t' ai rencontrée	met you	1.0	2
pas vus	't seen	1.0	1
espoir que	hope than	1.0	1
Chez	My	1.0	1
plein d' argent	lot of charges	1.0	1
gâteau avec	cake with	1.0	4
touche	touch	1.0	1
bien entendu ,	course ,	1.0	3
jamais vues	ever seen	1.0	2
concours d' entrée	entrance examination	1.0	1
fait beau demain	is sunny tomorrow	0.5	1
fait beau demain	is fine tomorrow	0.5	1
se plaignit	complained	1.0	2
manger ce week-end	eat this weekend	1.0	2
trottoir	sidewalk	1.0	2
sortir .	go out .	0.8	4
sortir .	going out .	0.2	1
muffin que tu	muffins that you	1.0	1
nouveau manteau .	new coat .	1.0	1
sûr , c'	course , it	0.5	1
sûr , c'	course , that	0.5	1
son record	his record	1.0	1
une anarchiste ,	an anarchist ,	1.0	1
sortir !	go out !	1.0	1
« Ce	" It	1.0	2
nos amis	our friends	0.5	1
nos amis	your friends	0.5	1
de pagaille à	of mess to	1.0	1
ne refroidisse	gets cold	1.0	2
sortir ?	out ?	1.0	1
d' environ quatre	about every four	1.0	1
nuit et	and night	1.0	1
Ma mère dit	My mother said	1.0	1
que vous puissiez	think you could	1.0	1
de section	section	1.0	2
des droits la	rights the	1.0	1
Ce café a	That cafe has	0.5	1
Ce café a	This coffee has	0.5	1
Jill .	Jill .	1.0	1
le feu rouge	the stoplight	1.0	1
avec l' Amérique	with America	1.0	1
cours ,	class ,	0.666666666667	2
cours ,	course ,	0.333333333333	1
le froid	the cold	0.666666666667	4
le froid	cold it	0.166666666667	1
le froid	the chill	0.166666666667	1
fait une erreur	making a mistake	0.5	1
fait une erreur	made a mistake	0.5	1
presse	press	1.0	1
devez retourner l'	must return the	1.0	1
obligées d' attendre	have to wait	1.0	1
Dès lors	then	1.0	1
ici rapidement ,	here fast ,	1.0	1
ton cas .	your case .	1.0	1
vous venu	you come	1.0	1
arbre pour	tree to	1.0	1
Je vais mettre	I will set	1.0	1
avais eu	had had more	1.0	1
Avoir une petite	Having a small	1.0	1
une erreur	a mistake	0.8	8
une erreur	an error	0.1	1
une erreur	some mistake	0.1	1
et aucun poil	and none	1.0	1
danse bien .	dances well .	1.0	1
exécuter de	order to	1.0	1
retraite	pension	0.25	1
retraite	job	0.25	1
retraite	into	0.25	1
retraite	he retires	0.25	1
attitude facile	convenient disposition	1.0	1
dans la lutte	in the struggle	1.0	1
est improbable que	s unlikely that	1.0	1
brève	cameo	1.0	1
monde	world	0.953846153846	62
monde	crooks	0.0153846153846	1
monde	people	0.0307692307692	2
livres est	books is	1.0	1
au monde	the world	0.333333333333	1
au monde	in the world	0.666666666667	2
compliquée	fracture	1.0	1
Gardez ces	Bear these	0.5	1
Gardez ces	Keep these	0.5	1
avais en	had in	1.0	2
anarchiste a tendance	anarchist is apt	1.0	1
mangea son souper	ate her dinner	1.0	1
me fait souvent	often makes me	1.0	1
il vient juste	he did just	1.0	1
temps seul .	time alone .	1.0	2
aiguë	sharp	1.0	3
que tout allait	that everything was	1.0	2
l' aérobic .	aerobics .	1.0	1
La mère était	The mother was	1.0	1
joueur de volley-ball	volleyball player	1.0	1
Si tu prends	If you eat	0.5	1
Si tu prends	If you take	0.5	1
journal .	newspaper .	0.5	1
journal .	diary .	0.5	1
Mais à	But in	1.0	1
cheveux . Ils	hair . It	1.0	1
Regardez la	Look at the	1.0	1
seul à être	alone in being	1.0	1
vision	sight	0.5	1
vision	vision	0.5	1
N' importe quel	Any	1.0	4
Ferme les	Close the	1.0	1
briques »	bricks "	1.0	1
Jim .	Jim .	1.0	2
me brûler	sting	1.0	1
Il a acheté	He bought	1.0	2
marrer !	up !	1.0	1
pouvez facilement trouver	can easily find	1.0	1
montre marche	watch is running	1.0	1
faire ; je	do ; I	1.0	1
fraises	strawberries	1.0	2
ferez	ll	1.0	1
emprunt à	loan back to	1.0	1
Le café	Coffee	0.555555555556	10
Le café	The coffee	0.277777777778	5
Le café	This coffee	0.0555555555556	1
Le café	The bar	0.111111111111	2
, que devrais	, what should	1.0	2
, mais personne	, but there	1.0	1
cuite .	done .	1.0	1
langue . Et	language . And	1.0	1
ai rêvé que	dreamt	1.0	1
arrives à Londres	get to London	1.0	1
plat japonais	Japanese food	1.0	1
, quelle	, what	1.0	1
, plus que	, more than	1.0	2
elle du	she play	1.0	1
souhaits ;	wishes ,	1.0	1
bec et	beak and	1.0	1
vêtements étaient faits	clothes were made	1.0	1
Tony entendit sa	Tony heard her	1.0	1
elle de	her to	1.0	1
votre parapluie	your umbrella	1.0	1
une carriole .	a cart .	1.0	1
un amas	a deafening	1.0	1
hésitez	you	1.0	1
la mesure de	the measure of	1.0	1
ont choisi Pierre	chose Peter	1.0	1
reconnue	recognize her	1.0	1
sortes de	kinds of	0.857142857143	6
sortes de	types of	0.142857142857	1
d' être célèbre	to be famous	1.0	1
Ils chantaient	They sang	1.0	1
du soleil	sunny	0.333333333333	2
du soleil	sunlight	0.333333333333	2
du soleil	of the sun	0.333333333333	2
dire , je	say , I	1.0	1
représentation .	performance .	1.0	1
reconnut	admitted	1.0	1
la géographie	geography	1.0	1
désolé ,	sorry ,	1.0	3
attirante	attractive	1.0	1
réparer	repaired	0.222222222222	2
réparer	repair	0.111111111111	1
réparer	get	0.222222222222	2
réparer	fix	0.333333333333	3
réparer	fixed	0.111111111111	1
l' intention	intention	0.4	2
l' intention	the intent	0.2	1
l' intention	willing	0.2	1
l' intention	plans	0.2	1
normalement le	usually the	1.0	1
avant .	before .	0.857142857143	6
avant .	earlier .	0.142857142857	1
il a promis	he promised	1.0	1
la Gaule ,	Gaul ,	1.0	2
des gens et	people and	1.0	1
eu assez	had my fill	1.0	1
avant ?	before ?	1.0	1
guerre a duré	war had lasted	1.0	1
s	if	0.5	1
s	were	0.5	1
homme ne pourrait	man could	1.0	1
elle d'	her to	1.0	1
, l' inverse	, the opposite	1.0	1
j' étudie	I study	1.0	1
moi avec son	me with his	1.0	1
bar ou	buffet or	1.0	1
étais complètement hors	was completely out	1.0	1
faire demain .	do tomorrow .	1.0	2
avec vos	with your	1.0	2
ours en peluche	teddy bear	1.0	1
moyenne	an average of	1.0	1
de filles vêtues	of girls in	1.0	1
pour laisser	to leave	0.166666666667	1
pour laisser	to let	0.5	3
pour laisser	to give	0.166666666667	1
pour laisser	to keep	0.166666666667	1
Je sentais mon	I felt my	1.0	2
mon conseil .	my advice .	1.0	1
l' origine du	the origins of	1.0	1
est plus difficile	is more difficult	0.5	1
est plus difficile	is harder	0.5	1
je peux étudier	I can study	1.0	1
gare pour	station to	0.666666666667	4
gare pour	train station to	0.333333333333	2
boit une bouteille	has a bottle	1.0	1
la Yougoslavie était	Yugoslavia was	1.0	1
est très patient	is very patient	1.0	1
son dos .	its back .	0.5	1
son dos .	his back .	0.5	1
le meilleur chanteur	the best singer	1.0	1
gâteau ci	cake	1.0	1
pour les étudiants	to students	1.0	1
père parle	father is	0.5	1
père parle	dad speaks	0.5	1
Il a donné	He gave away	0.5	1
Il a donné	He gave	0.5	1
laissez personne	't let anyone	1.0	1
au souper	for dinner	1.0	1
allant de	matter of	1.0	2
individuelles .	packets .	1.0	1
Ce politicien est	This politician is	1.0	1
la boîte sous	the box under	1.0	2
son petit déjeuner	breakfast	1.0	2
pas plus un	no more a	1.0	2
de la société	of the company	1.0	1
tout de vivre	all to live	1.0	1
curieux de noter	curious to note	1.0	1
Ces ciseaux ne	These scissors do	1.0	1
me suis procuré	got	1.0	1
tapant le rapport	typing the report	1.0	1
bourg .	town .	1.0	1
vous monter	you ride	0.666666666667	2
vous monter	set you	0.333333333333	1
photos	pictures	1.0	1
pouvoir améliorer	improving	1.0	1
pas avoir la	't control the	1.0	1
je préfère manger	I like eating	1.0	2
abeilles en furie	very angry bees	1.0	1
ayons eu en	have had in	1.0	2
former	form	1.0	2
de solliciter un	to ask an	1.0	1
information , pas	information , not	1.0	1
son fusil vers	his gun at	1.0	1
est également	is also	1.0	1
Mary !	Mary !	1.0	1
lait parle	milk speaks	1.0	1
viande est dure	meat is tough	1.0	1
Mary ,	Mary ,	1.0	3
ce semestre	this term	1.0	1
mon destin	my fate	1.0	1
premier regard	first sight	1.0	2
situation	situation yet	0.0714285714286	1
situation	situation	0.928571428571	13
acheté cette montre	buy this watch	1.0	1
êtes une très	are a really	1.0	1
elle joue	she plays	1.0	1
sur lui en	on him in	1.0	2
qu' avoir au	that having at	1.0	1
Jadis , si	Once , if	1.0	1
me connais	know myself	1.0	1
sans tes conseils	without your advice	1.0	1
fût est particulièrement	tastes especially	1.0	1
à faire ?	to do ?	1.0	5
Nagoya	Nagoya	1.0	2
un amusement	a childish	1.0	1
la cloche	the bell	0.888888888889	8
la cloche	the class bell	0.111111111111	1
de lait	of milk	0.85	17
de lait	any milk	0.1	2
de lait	of cream	0.05	1
œuf ou	egg or	1.0	1
Pas un	Not a	1.0	2
ce dont il	what he	1.0	1
l' arbre	the tree	1.0	6
un énorme	a huge	1.0	1
vous quelque chose	you have anything	1.0	4
regarda son	looked at his	1.0	1
inscrit	get	1.0	2
une chèvre	a goat	1.0	1
Shintaro	Shintaro	1.0	1
ces temps ,	those days ,	1.0	1
froid et	cold and	1.0	1
cuire	cook	0.75	3
cuire	boil	0.25	1
émigrent ,	emigrate ,	1.0	1
s' accrochaient	clung	1.0	1
tentative désespérée	last-ditch effort	1.0	1
la vanille .	vanilla .	1.0	1
retenue dans la	constraint in the	1.0	1
Moi . (	Me . (	1.0	1
simple question :	simple question :	1.0	1
lui en	him in	1.0	2
fumer sur	smoke on	0.5	1
fumer sur	smoking on	0.5	1
un maître de	a master of	1.0	1
phénomènes	phenomena	1.0	1
vu la reine	saw the queen	1.0	1
est d'	is to	1.0	6
éviter des maladies	avoid foodborne	1.0	1
est aiguisé	is sharp	1.0	2
son kimono .	her dress .	1.0	1
dis -	tell	1.0	3
trop sucré	too sweet	1.0	2
dis .	say .	0.8	4
dis .	are saying .	0.2	1
quelques heures après	several hours after	1.0	1
ce cours	this class	0.666666666667	2
ce cours	this course	0.333333333333	1
dis "	say "	1.0	1
comme petit-déjeuner	for breakfast	1.0	1
, numérique	, digital	1.0	1
lui et	him and	1.0	1
belle robe .	nice dress .	1.0	1
Elle pensait qu'	She thought	1.0	1
fait beau toute	fine all	1.0	1
respirons , nous	breathe , we	1.0	1
passer inaperçu en	pass unnoticed in	1.0	1
la tente .	the tent .	1.0	1
d' avoir travaillé	from having worked	0.5	1
d' avoir travaillé	from working	0.5	1
pas couru	't run	1.0	2
consacré	dedicated	1.0	1
ai - je	did I	1.0	1
fautes jusqu'	mistakes down	1.0	1
même nourriture .	same food .	1.0	1
ai acheté deux	bought two	1.0	1
fatiguer vos	strain your	1.0	1
se dépêcha ,	rushed ,	1.0	1
client vint et	customer came and	1.0	1
devoirs cet après-midi	homework this afternoon	1.0	1
XVe	XVth	1.0	1
Cela va bien	It looks nice	1.0	1
bloqué	locked	1.0	1
Cette eau	This water	1.0	5
auparavant ,	before ,	1.0	3
auparavant .	before .	1.0	18
étages ,	building	1.0	1
Il gagne sa	He earns his	1.0	1
Diesel	Diesel	1.0	1
est continuellement pompée	is continuously pumped	1.0	1
est très rouge	is very red	1.0	1
envoyez	send	1.0	1
bon à paraître	good at appearing	1.0	1
avez à faire	have to do	1.0	7
nues	bare	1.0	1
donna un à	gave one to	1.0	1
auparavant ?	before ?	1.0	6
fin de la	end of the	0.9	9
fin de la	bottom of the	0.1	1
, voici	, this is	1.0	2
contraire .	contrary .	0.5	1
contraire .	opposite .	0.5	1
grosse fille mange	fat girl consumes	1.0	1
du caviar .	caviar .	1.0	1
fait hier	do yesterday	0.272727272727	3
fait hier	did last	0.727272727273	8
bazar dans l'	doohickey into the	1.0	1
pouvait être	could be	1.0	1
whisky .	whiskey .	1.0	1
Yumi	Yumi	1.0	2
, pas	, not	0.764705882353	13
, pas	, no	0.176470588235	3
, pas	; not	0.0588235294118	1
Je ne supporte	I cannot bear	1.0	1
Mac	Mac computer	1.0	1
tu es .	you are .	1.0	2
cimetière étaient	graveyard were	1.0	1
l' eau ne	water do n	0.666666666667	2
l' eau ne	water wo n	0.333333333333	1
ces phrases en	these sentences into	1.0	1
que la quantité	than quantity	1.0	2
plumes	own feathers	1.0	1
Je suis incapable	I am unable	1.0	1
Montrez - moi	Show me	0.75	3
Montrez - moi	Please show me	0.25	1
. Si vous	. If you	1.0	2
très rapides mais	very fast but	1.0	1
il fasse	he does	0.8	4
il fasse	it is	0.2	1
nature animale	animal nature	1.0	1
l' œuf .	an egg .	1.0	1
dans ses	in his	0.8	4
dans ses	in its	0.2	1
sa vieille	his old	1.0	1
comme importantes	as important	1.0	1
Français et	French and	1.0	1
maison , solide	house , strong	1.0	1
a fallu	took	0.8	4
a fallu	cost	0.2	1
sumo	sumo	1.0	1
un coin de	one corner of	1.0	2
Qui veut du	Who wants some	1.0	1
Nous faisons	We have	1.0	1
rien d' autre	nothing	1.0	2
veux , mais	want , but	1.0	1
fin de l'	end of the	1.0	4
café est	coffee is	0.9	9
café est	cafe is	0.1	1
docteur pour	doctor to	1.0	1
vous que je	you think I	1.0	1
elle soit	she is	1.0	4
Elle était	She had	0.0909090909091	2
Elle était	She was	0.909090909091	20
suis surpris	' m surprised	1.0	2
droit fémoral ,	rectus femoris ,	1.0	1
perdit une	lost a	1.0	3
tomber	down	0.454545454545	5
tomber	fall	0.363636363636	4
tomber	off	0.0909090909091	1
tomber	shed	0.0909090909091	1
que seuls deux	that only two	1.0	1
gâtant son	spoiling her	1.0	1
une tranche	a loaf	0.25	1
une tranche	a piece	0.25	1
une tranche	a slice	0.5	2
la palissade .	the fence .	1.0	1
cette petite pièce	that small room	1.0	2
pâturage fait dix	pasture is ten	1.0	1
Il a commandé	He called for	0.333333333333	1
Il a commandé	He ordered	0.666666666667	2
Le mot que	The word that	1.0	1
digne représentant	typical champagne	1.0	1
mienne	mine	0.6	3
mienne	mine is	0.2	1
mienne	hand	0.2	1
Strictement parlant ,	Strictly speaking ,	1.0	1
entre un	between a	1.0	2
peux faire	can do	0.736842105263	14
peux faire	can make	0.105263157895	2
peux faire	can take	0.0526315789474	1
peux faire	can have	0.0526315789474	1
peux faire	may make	0.0526315789474	1
fête avec nous	party with us	1.0	1
temps avec	time with	1.0	20
grue	crane	1.0	1
de toutes les	to every	0.5	1
de toutes les	of all the	0.5	1
gousse d'	clove of	1.0	1
Si nous partons	If we leave	1.0	1
un doux	a sweet	1.0	1
ta soupe avant	your soup before	1.0	2
mangé depuis tôt	eaten since early	1.0	1
traitement	' s	1.0	1
de toute	of all	1.0	3
Je souhaite	I want to	1.0	3
que ma sœur	as my sister	1.0	1
le mal sont	wrong are	1.0	1
à chaque	at every	0.75	3
à chaque	to each	0.25	1
son caractère ,	her temper ,	1.0	1
longueur fait ce	long is this	1.0	1
son caractère .	his character .	1.0	1
dur dans	hard in	1.0	1
chasseur prit	hunter caught	1.0	1
mit le panier	set the basket	1.0	1
l' œuf ?	the egg ?	1.0	1
avait l' intention	intended	1.0	4
ses talents	her ability	0.5	1
ses talents	his talents	0.5	1
À ton âge	At your age	1.0	1
équipage est	crew is	1.0	1
volonté .	will .	1.0	5
une sieste .	a rest .	1.0	1
du Texas	of Texas	1.0	1
souris fut	mouse was	1.0	1
si honnête que	so honest that	1.0	1
les fronts .	fronts .	1.0	1
autre côté .	other side .	1.0	1
la capitale	the capital	1.0	1
Comme j' ai	As I have	1.0	1
soit encore	is still	1.0	2
lever à six	up at six	1.0	1
fille appelée Stella	girl named Stella	1.0	1
mangeons	eat	0.923076923077	12
mangeons	are having	0.0769230769231	1
sport .	sports ,	1.0	1
à préparer le	preparing for the	1.0	2
entendu un bruit	heard a noise	1.0	2
Le livre est	The book is	1.0	2
, vous avez	, you have	1.0	2
manger des pommes	eat apples	0.5	1
manger des pommes	apples	0.5	1
écrivain	writer	1.0	1
? Un piano	? A piano	1.0	1
envoyer un	send a	1.0	1
après avoir reçu	after receiving	0.5	1
après avoir reçu	of receiving	0.5	1
Un poisson peut	A fish can	1.0	1
était bleu	was blue	1.0	1
croix . Il	cross . Instead	1.0	1
discutons	talk it over	1.0	1
recongeler	freeze again	1.0	1
à une femme	to a woman	1.0	1
est fait .	is done .	0.8	4
est fait .	s done .	0.2	1
se vendit	sold	1.0	2
homme qui	man who	1.0	5
personnalité populaire	popular TV	1.0	1
comprends que M.	understand that Mr.	1.0	1
à la bibliothèque	to the library	1.0	3
répondit qu'	answered that	1.0	1
je payer par	I pay with	1.0	1
êtes nuls à	re crap at	1.0	1
va vraiment	looks really	1.0	1
Europe fut	Europe was	1.0	1
grande queue	long line	1.0	3
Ce tissu	This cloth	0.5	1
Ce tissu	This fabric	0.5	1
au parc	at the park	0.333333333333	1
au parc	in the park	0.333333333333	1
au parc	to the park	0.333333333333	1
était chaud .	was warm .	1.0	1
Mon genou est	My knee is	1.0	1
commander des pizzas	we order pizza	1.0	1
parti ,	gone ,	1.0	1
Si seulement on	If only we	1.0	1
Ni	No	0.5	1
Ni	Neither	0.5	1
mon ami ,	my friend ,	1.0	1
Ne	n	0.0241935483871	3
Ne	Do	0.233870967742	29
Ne	Not	0.0725806451613	9
Ne	Do n	0.637096774194	79
Ne	Never	0.00806451612903	1
Ne	't	0.00806451612903	1
Ne	Make	0.00806451612903	1
Ne	In	0.00806451612903	1
mon ami .	my friend .	1.0	3
regretter autant	regret it all	1.0	1
un dîner	a dinner	1.0	2
la pile est	the battery is	1.0	1
pour passer l'	to pass the	1.0	1
apprends à jouer	m learning	1.0	1
bon ce soir	nice tonight	1.0	1
critiqua la guerre	criticized the war	1.0	1
est Kate .	is Kate .	1.0	1
Le syndicat fut	The union was	1.0	1
allemand	German	1.0	8
confiture	jam	1.0	5
Ce repas était	That meal was	1.0	2
petit peu ,	little ,	1.0	2
Ton anglais	Your English	1.0	1
plusieurs langues est	multiple languages is	1.0	1
urines .	urine .	1.0	1
la dépendance .	dependence .	1.0	1
était excellent .	was excellent .	1.0	1
aimerais que	d like	0.5	1
aimerais que	wish that	0.5	1
de juger	to try	1.0	1
de l' adhan	of the azaan	1.0	1
baguette magique	magic wand	1.0	1
est indispensable pour	is indispensable to	1.0	1
un bout	a long	0.25	1
un bout	a piece	0.5	2
un bout	something	0.25	1
dormis	slept	1.0	1
dormir	sleep	0.947368421053	18
dormir	be asleep	0.0526315789474	1
vous avez une	you have a	1.0	1
une ville	a town	0.666666666667	2
une ville	a city	0.333333333333	1
dehors sous	outside in	1.0	1
gigantesque	huge	0.5	1
gigantesque	giant	0.5	1
Le premier	The first	1.0	1
pour refuser	, rejecting	1.0	1
N'	Do	0.916666666667	66
N'	Please	0.0138888888889	1
N'	Just	0.0138888888889	1
N'	Let	0.0138888888889	1
N'	Bring	0.0138888888889	1
N'	You	0.0138888888889	1
N'	Be	0.0138888888889	1
La fille leva	The girl lifted	1.0	1
cette pièce pour	this room for	1.0	1
Il fait si	He looks so	1.0	1
grincheux	cranky	1.0	1
pour passer le	to pass the	1.0	1
souhaitent à	are anxious to	1.0	1
n' a fait	could make	0.5	1
n' a fait	treatment has	0.5	1
du monde .	the world .	0.875	7
du monde .	the world ,	0.125	1
Sais - tu	Do you	0.25	1
Sais - tu	Can you	0.75	3
fautes en	mistakes in	1.0	2
et l' huile	and oil	1.0	1
pull	sweater	1.0	1
en anglais .	in English .	0.941176470588	16
en anglais .	at English .	0.0588235294118	1
ses moutons	his sheep	1.0	1
un sumotori	a sumo wrestler	1.0	1
occupé cette semaine	busy this week	1.0	2
vraiment beau	really handsome	0.333333333333	1
vraiment beau	really beautiful	0.666666666667	2
avez des enfants	have children	1.0	1
en anglais ?	in English ?	1.0	8
nourriture , donc	food , so	1.0	1
pu trouver la	find the	1.0	1
Simetierre »	Pet Sematary "	1.0	1
ressemblent comme	alike as	1.0	1
notre vie	our life	1.0	1
cheveu dans ma	hair in my	1.0	1
: " Si	: " If	1.0	1
gens au Japon	people in Japan	1.0	1
que quelqu'un allume	somebody turns on	1.0	1
Ce formulaire	This form	1.0	1
que derrière	that behind	1.0	1
Matthew Hopkins chasseur	Matthew Hopkins	1.0	1
tu étais un	you were a	1.0	1
Bombardez -	Bomb	1.0	1
, la banque	, the bank	1.0	1
, le canard	, the duck	1.0	1
et amuse	and have a	1.0	1
ferais tout aussi	may as	0.333333333333	1
ferais tout aussi	might as	0.666666666667	2
douleurs fortes	sharp pain	1.0	1
pour le dîner	for dinner	1.0	4
fois plus lourd	times as heavy	0.333333333333	1
fois plus lourd	times heavier	0.666666666667	2
boîte d'	box of	1.0	1
Je vais repousser	I will postpone	1.0	1
fonctionnera	work	1.0	1
capturèrent l'	captured the	1.0	1
le reste de	the rest of	1.0	9
Sa nouvelle	Her new	1.0	1
ai lu ce	read this	1.0	1
ton cerveau	your brain	1.0	1
seconde ,	second ,	1.0	1
petit bateau était	small boat was	1.0	1
seconde .	second .	1.0	2
étudie le	been studying	1.0	1
Il a postulé	He applied	1.0	1
boire davantage	drink any more	0.333333333333	1
boire davantage	drink more	0.666666666667	2
me déplace très	get along quite	1.0	1
ne voulut	did n	1.0	1
ami là-bas	friend there	1.0	1
vivre et on	living while we	1.0	1
mère prépare un	mother makes a	1.0	1
façon de dire	way of saying	1.0	1
lorsqu' il pense	when it thinks	1.0	1
langue ?	language ?	1.0	2
les plantes	the plants	0.2	1
les plantes	plants	0.4	2
les plantes	the flowers	0.4	2
la mort	death	0.909090909091	10
la mort	the death	0.0909090909091	1
sa propre langue	s own language	1.0	1
l' avant	the front	1.0	1
Tom était coupable	Tom was guilty	1.0	1
pièce unes	room one	1.0	1
ceinture .	seat belts .	0.2	1
ceinture .	seat belt .	0.8	4
Pourrais - tu	Could you	0.8125	13
Pourrais - tu	Would you	0.125	2
Pourrais - tu	Will you	0.0625	1
brisa la	broke up the	1.0	1
de froid .	to death .	1.0	1
de diminution de	diminution	1.0	1
piano régulièrement	piano regularly	1.0	1
vais mourir si	ll die if	1.0	1
Le stylo est	The pen is	1.0	1
ferais un	would make a	1.0	1
, la température	, the temperature	1.0	1
bonnes en cuisine	good at cooking	1.0	1
connaître la nature	know nature	1.0	1
petit détail	little detail	1.0	1
mot de cette	word in this	1.0	1
ouï	heard	1.0	1
Ben a appris	Ben learned	1.0	1
de marcher aussi	to walk as	1.0	1
extérieur , comme	out and	1.0	1
vaisselle , je	dishes , I	1.0	1
lettre .	letter .	0.923076923077	12
lettre .	card .	0.0769230769231	1
est sur	is on	0.727272727273	8
est sur	s on	0.272727272727	3
lettre ,	letter ,	1.0	1
plus lourd que	heavier than	0.75	6
plus lourd que	as heavy as	0.25	2
cette période ,	this period ,	1.0	1
passer moins	spend less	1.0	4
Il en appela	He called	1.0	1
Le gâteau est	The cake tastes	1.0	1
l' histoire	history	0.363636363636	4
l' histoire	the story	0.181818181818	2
l' histoire	major	0.0909090909091	1
l' histoire	the history	0.363636363636	4
« bleu »	" blue "	1.0	1
lettre !	letter .	1.0	1
fille était occupée	girl was busy	1.0	1
ensemble comme nous	together like we	1.0	1
intéressantes .	interesting .	1.0	1
hydrogène forment	up of	1.0	1
va échouer	will fail	1.0	1
pouvoir offrir	offer	1.0	1
parlaient polonais	could speak Polish	1.0	1
est son gibier	is his game	1.0	1
en se baignant	while bathing	1.0	1
vrai génie de	true genius of	1.0	1
sa composition .	his composition .	1.0	1
passionnés d' aventure	fond of adventure	1.0	1
a ses avantages	has advantages	1.0	1
à la viande	to meat	1.0	2
qui souhaiterait	who wants	1.0	1
est crade .	is dirty .	1.0	1
il alla	he took	1.0	1
causes	causes	1.0	1
le confond	mistakes it	1.0	1
sympa	nice	1.0	3
soulever cette pierre	lift this stone	1.0	1
bébé fut	baby was	1.0	1
Évitant les	Avoiding one-use	1.0	1
avec ton père	with your father	1.0	1
L' éléphant a	The elephant	1.0	1
a fini	finally gave	0.333333333333	1
a fini	finished	0.333333333333	1
a fini	ended	0.333333333333	1
facile à vivre	easygoing	1.0	2
suggéra	suggested	1.0	1
Pourrais -	Could	0.674418604651	29
Pourrais -	May	0.232558139535	10
Pourrais -	Can	0.0232558139535	1
Pourrais -	Would	0.046511627907	2
Pourrais -	Will	0.0232558139535	1
union fait	gives	1.0	1
froid hier que	cold yesterday that	1.0	1
est très important	is very important	1.0	1
une courte routière	a route map	1.0	1
nord	north	1.0	1
est un fondement	was one	1.0	1
test du moteur	engine test	1.0	1
sixième année	sixth year	1.0	1
a cogné	hit	1.0	1
le roi	the king	1.0	1
mettre cette	wear the	1.0	1
ami comme	friend like	1.0	1
ici est indéniable	here is undeniable	1.0	1
enfant de manger	child to eat	1.0	1
à la gym	to the gym	1.0	1
travail pénible	hard work	1.0	1
« Non	" No	1.0	2
vint coller	came sticking	1.0	1
hasard .	accident .	0.6	6
hasard .	chance .	0.4	4
vous avoir rencontré	your acquaintance	1.0	1
hasard ,	chance ,	1.0	1
entendis un	heard a	1.0	1
esprit perçoit une	mind perceives a	1.0	1
d' air pur	clean air	1.0	1
vous avez saisi	you have entered	1.0	1
Ajouter le miel	Add the honey	1.0	1
votre goût .	your satisfaction .	1.0	1
Parler en	Speaking in	1.0	1
utilisée comme	used as	1.0	2
bien plus utile	much more useful	1.0	1
par deux journalistes	by two journalists	1.0	1
Japon - plat	Japan - flat	1.0	1
sans	without	0.964539007092	136
sans	right	0.00709219858156	1
sans	't	0.00709219858156	1
sans	its	0.00709219858156	1
sans	no	0.00709219858156	1
sans	not	0.00709219858156	1
son imagination	his imagination	1.0	2
à l' annonce	to the announcement	1.0	1
avoir quelqu'un qui	having someone who	1.0	1
devrai -	shall	1.0	1
sang	blood	0.935483870968	29
sang	goodness	0.0322580645161	1
sang	freeze	0.0322580645161	1
est connu	is known	1.0	1
verre avec un	glass with an	1.0	1
Jim mangea trois	Jim ate three	1.0	1
cet hiver	this winter	1.0	3
la majeure partie	major part	1.0	1
et allemand	and German	1.0	1
Bomb mangea l'	Bob ate the	1.0	1
économe ,	thrifty ,	1.0	1
de remettre	to put	1.0	1
froid .	cold .	0.93023255814	80
froid .	cold weather .	0.0116279069767	1
froid .	colder .	0.0116279069767	1
froid .	death .	0.0116279069767	1
froid .	colds .	0.0116279069767	1
froid .	freezing weather .	0.0116279069767	1
froid .	chill .	0.0116279069767	1
froid ,	cold ,	0.916666666667	11
froid ,	chilly ,	0.0833333333333	1
le plaisir	his own amusement	0.25	1
le plaisir	the hell	0.25	1
le plaisir	the pleasure	0.25	1
le plaisir	pleasure	0.25	1
ai enterré mon	buried my	1.0	1
vous adresser mes	express my	1.0	1
200 kilomètres en	200 kilometers in	1.0	1
que Bill .	as Bill .	1.0	2
un nouveau vélo	a new bicycle	1.0	1
Cette pomme est	That apple is	0.2	1
Cette pomme est	This apple is	0.6	3
Cette pomme est	This apple tastes	0.2	1
chante et danse	sings and dances	1.0	1
froid !	cold !	1.0	1
froid ?	feel cold ?	1.0	1
par elle	by her	1.0	1
de vivre ensemble	to live together	1.0	2
froid :	cold ,	1.0	1
fast food	fast food	1.0	1
était rouge	was red	0.5	1
était rouge	was blazing	0.5	1
pleuvrait .	rains .	0.857142857143	6
pleuvrait .	should rain .	0.142857142857	1
sa culotte .	her pants .	1.0	1
fait des fautes	makes mistakes	1.0	1
dans le prix	in the price	1.0	2
dans l' histoire	in the history	1.0	2
Elles sont trop	They are too	1.0	1
vous qu'	you think	1.0	2
de nager	to swim	1.0	4
Pliez la feuille	Fold the paper	1.0	1
Il est plus	It is more	1.0	1
Si la vie	If the life	1.0	1
. Mets	. Put on	1.0	1
rat a fait	rat chewed	1.0	1
Des fois	There were times	1.0	1
on aborde	we look	1.0	1
une lame	a keen	1.0	1
signature ici ,	signature here ,	1.0	1
univers tel	universe	1.0	1
belle lettre .	nice card .	1.0	1
sont si maigres	are so small	1.0	1
sel améliorera	salt would improve	1.0	1
Tom veut	Tom wants	1.0	3
J' ai entendu	I heard	0.5	1
J' ai entendu	I hear	0.5	1
les merveilles de	the wonders of	1.0	1
pas dû boire	't have drunk	1.0	1
en faites pas	't worry	1.0	1
l' intérieur est	the inside is	1.0	1
rapide et	fast and	1.0	1
pourrais faire	could do	1.0	1
fait qu' un	fact that an	1.0	1
bruit creux se	hollow sound	1.0	1
nous devrions	we should	1.0	3
ses CDs .	his CDs .	1.0	1
de mon destin	of my fate	1.0	1
neuf cas sur	nine cases out	1.0	1
voir .	see .	1.0	1
au pire	the worst	0.5	1
au pire	for the worst	0.5	1
… C'	… It	1.0	1
gants gardaient	gloves kept	1.0	1
belle journée et	nice day and	1.0	1
phrase par cœur	sentence by heart	1.0	2
stylo n' a	pen has	1.0	2
court aussi vite	runs as fast	1.0	3
connaît	knows	0.75	9
connaît	is	0.0833333333333	1
connaît	know	0.166666666667	2
avec une canne	with a cane	1.0	1
avoir été paresseux	having been lazy	1.0	1
fatigué , il	tired , he	1.0	1
Eve boit	Eve drinks	1.0	1
avoir des pages	have pageboys	1.0	1
fille avait peur	girl was afraid	1.0	1
son poing	his fist	1.0	1
deux des	two of	1.0	1
la partie des	the part of	1.0	1
pressé de	anxious to	1.0	1
tue .	kills .	1.0	1
et le crayon	and the pencil	1.0	1
quitte mon	m quitting my	1.0	1
truc est	contraption is	1.0	1
la tête	my mind	0.08	4
la tête	the head	0.32	16
la tête	sometimes	0.02	1
la tête	the heads	0.04	2
la tête	his head	0.16	8
la tête	my head	0.06	3
la tête	a head	0.02	1
la tête	the leadership	0.02	1
la tête	head	0.04	2
la tête	your mind	0.02	1
la tête	her head	0.1	5
la tête	s head	0.02	1
la tête	your head	0.04	2
la tête	a face	0.02	1
la tête	your pipe	0.02	1
la tête	its head	0.02	1
allégresse dans le	elation in the	1.0	1
bien le japonais	good Japanese	0.5	2
bien le japonais	Japanese well	0.5	2
peinte en	painted	1.0	1
, sauf quand	, except when	1.0	1
que Meg .	as Meg .	1.0	1
fauteuil en	panther	1.0	1
siècles d' histoire	centuries of history	1.0	1
" et "	" and "	1.0	1
il s' arrange	he manages	1.0	1
me coucher tôt	bed early	1.0	4
objet d' art	'art	1.0	1
Une vache	A cow	1.0	1
fait avoir .	been had .	1.0	1
! Je	! I	1.0	3
mors	put	1.0	1
ça peut signifier	it can mean	1.0	1
d' oignon .	of onions .	1.0	1
deux bouteilles	two bottles	1.0	6
mort	dead	0.444444444444	8
mort	frozen	0.0555555555556	1
mort	death	0.388888888889	7
mort	died	0.111111111111	2
est jeter	s just throwing	1.0	1
quand nous nous	when we	1.0	4
J' ai joué	I spent	0.5	1
J' ai joué	I played	0.5	1
: nous avons	, we	1.0	1
des phrases sur	sentences on	0.5	1
des phrases sur	sentences about	0.5	1
est né	was born	1.0	2
en espagnol	in Spanish	1.0	1
Cette fleur	This flower	0.818181818182	9
Cette fleur	That flower	0.181818181818	2
Elle a écrit	She wrote	1.0	1
bouteille de lait	bottle of milk	1.0	2
consacre	spend	1.0	1
nuages	clouds	1.0	2
soin	care	1.0	7
naturel d' être	natural to be	1.0	1
cette phrase par	this sentence by	1.0	2
nourrissait	was feeding	1.0	1
si triste ?	so sad ?	1.0	1
ma faute .	my fault .	1.0	1
a vu	saw	0.857142857143	6
a vu	was seen	0.142857142857	1
dors pas	't sleep	0.5	1
dors pas	not sleep	0.5	1
. D'	. On	1.0	1
Cette organisation	This organisation	1.0	1
liberté de	freedom to	1.0	1
Comme une	Like a	1.0	1
La chemise	The shirt	1.0	1
a rencontré beaucoup	met many	1.0	1
pierre à mon	stone at my	1.0	1
trop lourd pour	too heavy for	0.5	2
trop lourd pour	too muggy for	0.25	1
trop lourd pour	too heavy to	0.25	1
poulet ? Comment	chicken ? How	1.0	1
et l' ignorance	and ignorance	1.0	1
exigé que	demanded that	1.0	1
légume en	vegetable in	1.0	3
a sauté une	skipped a	1.0	1
cuisine avec la	kitchen with the	1.0	1
! J'	! I	1.0	4
étudie avant	studies before	1.0	1
se coucher	bed	0.777777777778	14
se coucher	go to bed	0.111111111111	2
se coucher	went to bed	0.0555555555556	1
se coucher	to bed	0.0555555555556	1
je besoin	I need	1.0	1
sociale	social welfare	0.5	1
sociale	certificate	0.5	1
lui dans un	him in a	1.0	2
De l' air	Fresh air	1.0	1
seulement l' ignorance	only ignorance	1.0	1
Goldman Sachs a	Goldman Sachs	1.0	1
un couple malheureux	an unhappy	1.0	1
ai réussi	succeeded	1.0	1
danger qu' elle	danger that she	1.0	1
seulement quand	only when	1.0	1
logiciel . Ce	software . This	1.0	1
cas .	case .	0.833333333333	15
cas .	cases .	0.111111111111	2
cas .	basis .	0.0555555555556	1
cas ,	case ,	0.928571428571	13
cas ,	, then	0.0714285714286	1
Puisque	Since	0.666666666667	2
Puisque	As	0.333333333333	1
pour atteindre	to accomplish	0.5	1
pour atteindre	to get at	0.5	1
Mp3 .	function .	1.0	1
nous comprenons que	we understand that	1.0	1
porte bien	carries well	0.333333333333	1
porte bien	doing well	0.333333333333	1
porte bien	good health	0.333333333333	1
, une demi	, a half	1.0	1
rien pour ça	anything about it	1.0	1
leur réalisation	their fulfilment	1.0	1
cas ?	case ?	1.0	1
été stupide de	was stupid to	1.0	1
avec vos amis	with your friends	1.0	1
La vache	Cows	0.2	1
La vache	The cow	0.8	4
saches pas	't know	1.0	2
même farine	same cloth	1.0	1
, des efforts	, toil	1.0	1
la douche .	the shower .	1.0	1
avait un moyen	was a way	1.0	1
La nièce	Eliot	1.0	1
faire ensuite est	do next is	1.0	1
, sinon vous	, or you	1.0	1
thé coûte	tea costs	1.0	1
tu sais .	you know .	1.0	1
d' eau commune	water supply	1.0	1
vais à	m going to	1.0	1
lait chaque jour	milk every day	1.0	1
La richesse	Riches	1.0	1
billet ? "	ticket ? "	1.0	1
premier amour .	first love .	1.0	2
toujours facile	always easy	1.0	1
Elle est habituée	She is used	1.0	1
les fruits	fruit	1.0	1
la nourriture ici	the food here	1.0	1
Transmets-le	Send it	1.0	1
jamais rencontrés .	ever met .	1.0	1
Chacun fait	Each one does	0.5	1
Chacun fait	Everyone does	0.5	1
a fait du	did a	1.0	1
fille !	girl !	0.5	1
fille !	girl .	0.5	1
arrogance .	arrogance .	1.0	1
Un conte	A tale	1.0	1
salon ?	living room ?	1.0	1
fille .	girl .	0.25	2
fille .	daughter .	0.75	6
fille ,	daughter ,	1.0	1
excédent	surplus	1.0	1
cartable .	briefcase .	1.0	1
pleurer .	cry .	1.0	4
sied bien	suits	1.0	1
au pain	to bread	1.0	1
la chaleur ,	the heat ,	1.0	1
parents disaient et	parents said and	1.0	1
accusa	accused	1.0	4
ta sœur	your sister	1.0	3
la fin	the end	0.908045977011	79
la fin	the last	0.0114942528736	1
la fin	the bottom	0.0114942528736	1
la fin	last	0.0459770114943	4
la fin	the ending	0.0114942528736	1
